{"learner":{"attributes":{"scikit_learn":"{\"_estimator_type\": \"classifier\"}"},"feature_names":[],"feature_types":[],"gradient_booster":{"model":{"cats":{"enc":[],"feature_segments":[],"sorted_idx":[]},"gbtree_model_param":{"num_parallel_tree":"1","num_trees":"200"},"iteration_indptr":[0,1,2,3,4,5,6,7,8,9,10,11,12,13,14,15,16,17,18,19,20,21,22,23,24,25,26,27,28,29,30,31,32,33,34,35,36,37,38,39,40,41,42,43,44,45,46,47,48,49,50,51,52,53,54,55,56,57,58,59,60,61,62,63,64,65,66,67,68,69,70,71,72,73,74,75,76,77,78,79,80,81,82,83,84,85,86,87,88,89,90,91,92,93,94,95,96,97,98,99,100,101,102,103,104,105,106,107,108,109,110,111,112,113,114,115,116,117,118,119,120,121,122,123,124,125,126,127,128,129,130,131,132,133,134,135,136,137,138,139,140,141,142,143,144,145,146,147,148,149,150,151,152,153,154,155,156,157,158,159,160,161,162,163,164,165,166,167,168,169,170,171,172,173,174,175,176,177,178,179,180,181,182,183,184,185,186,187,188,189,190,191,192,193,194,195,196,197,198,199,200],"tree_info":[0,0,0,0,0,0,0,0,0,0,0,0,0,0,0,0,0,0,0,0,0,0,0,0,0,0,0,0,0,0,0,0,0,0,0,0,0,0,0,0,0,0,0,0,0,0,0,0,0,0,0,0,0,0,0,0,0,0,0,0,0,0,0,0,0,0,0,0,0,0,0,0,0,0,0,0,0,0,0,0,0,0,0,0,0,0,0,0,0,0,0,0,0,0,0,0,0,0,0,0,0,0,0,0,0,0,0,0,0,0,0,0,0,0,0,0,0,0,0,0,0,0,0,0,0,0,0,0,0,0,0,0,0,0,0,0,0,0,0,0,0,0,0,0,0,0,0,0,0,0,0,0,0,0,0,0,0,0,0,0,0,0,0,0,0,0,0,0,0,0,0,0,0,0,0,0,0,0,0,0,0,0,0,0,0,0,0,0,0,0,0,0,0,0,0,0,0,0,0,0],"trees":[{"base_weights":[9.787755E-3,-1.2604018E-1,1.1682403E0,-2.776994E-1,6.83727E-1,1.5279613E0,3.2187212E-1,-4.5839956E-1,9.1927335E-2,9.376389E-1,-3.8911068E-1,2.1179004E0,1.1167465E0,1.4507719E0,2.625706E-2,-8.099107E-1,-2.637309E-1,-5.273764E-2,5.4304266E-1,1.3611006E0,-3.6732383E-2,-6.6234434E-1,5.762342E-1,2.102404E-3,1.0809994E-1,-0E0,1.2815756E0,-0E0,9.935981E-2,-3.0259007E-1,7.1216244E-1,-8.602134E-1,2.3799549E-1,-3.3861205E-1,2.821035E-1,-1.8760252E-1,3.5838866E-1,1.1504803E0,1.5412909E-1,1.5810137E0,-2.1564741E-1,1.8301121E0,-7.2555774E-1,-9.159744E-1,-0E0,8.376889E-2,-4.123223E-1,5.011041E-1,-5.444611E-1,-9.234361E-4,1.3589313E0,1.944616E-1,-1.040052E0,9.6962833E-1,-2.0833518E-2,-4.4761315E-2,-0E0,-2.2054998E-2,4.6911772E-2,-1.0263863E-2,-4.193215E-2,-4.518758E-2,3.272311E-2,3.060762E-3,-2.4181025E-2,5.9626546E-2,1.7713605E-3,-0E0,6.406027E-2,-1.5660126E-2,3.1224584E-2,8.614244E-2,-5.2037984E-2,-4.1727122E-2,7.306387E-2,1.0605749E-1,-0E0,8.301395E-3,-5.8529895E-2,-0E0,-5.7588395E-2,-3.4800213E-2,3.029053E-2,-3.1517383E-2,-0E0,5.608475E-2,-0E0,-3.897284E-2,-0E0,-0E0,7.081953E-2,-3.1212872E-2,5.219114E-2,-5.9113633E-2,-0E0,-9.234361E-4,6.4890176E-2],"categories":[],"categories_nodes":[],"categories_segments":[],"categories_sizes":[],"default_left":[0,0,0,0,0,0,0,0,0,0,0,0,0,0,0,0,0,0,0,0,0,0,0,0,0,0,0,0,0,0,0,0,0,0,0,0,0,0,0,0,0,0,0,0,0,0,0,0,0,0,0,0,0,0,0,0,0,0,0,0,0,0,0,0,0,0,0,0,0,0,0,0,0,0,0,0,0,0,0,0,0,0,0,0,0,0,0,0,0,0,0,0,0,0,0,0,0],"id":0,"left_children":[1,3,5,7,9,11,13,15,17,19,21,23,25,27,29,31,33,35,37,39,41,43,45,-1,-1,47,49,-1,-1,51,53,55,57,59,61,63,65,67,69,71,73,75,77,79,81,-1,83,85,87,-1,89,91,93,95,-1,-1,-1,-1,-1,-1,-1,-1,-1,-1,-1,-1,-1,-1,-1,-1,-1,-1,-1,-1,-1,-1,-1,-1,-1,-1,-1,-1,-1,-1,-1,-1,-1,-1,-1,-1,-1,-1,-1,-1,-1,-1,-1],"loss_changes":[1.8538406E2,1.2847313E2,3.5325287E1,5.947496E1,4.573677E1,1.5195892E1,1.1498472E1,3.9492508E1,1.9404623E1,5.670627E1,8.761503E0,7.346802E-1,9.958908E0,7.0717907E0,7.9835906E0,1.190152E1,1.5963867E1,1.2003388E1,1.5535717E1,3.437648E1,5.2796673E1,3.7857265E0,9.194654E0,0E0,0E0,2.415866E0,6.070381E0,0E0,0E0,9.026961E0,4.402718E0,6.9058533E0,5.4265766E0,2.1602398E1,2.0479021E1,1.2745401E1,1.2858909E1,4.3087654E0,1.0634981E1,3.347455E1,1.2897272E1,5.1155777E0,1.3488213E1,3.7630205E0,4.180708E0,0E0,4.022616E-1,1.899782E0,6.221231E-1,0E0,4.792137E0,1.0136167E1,1.0966492E0,4.7651644E0,0E0,0E0,0E0,0E0,0E0,0E0,0E0,0E0,0E0,0E0,0E0,0E0,0E0,0E0,0E0,0E0,0E0,0E0,0E0,0E0,0E0,0E0,0E0,0E0,0E0,0E0,0E0,0E0,0E0,0E0,0E0,0E0,0E0,0E0,0E0,0E0,0E0,0E0,0E0,0E0,0E0,0E0,0E0],"parents":[2147483647,0,0,1,1,2,2,3,3,4,4,5,5,6,6,7,7,8,8,9,9,10,10,11,11,12,12,13,13,14,14,15,15,16,16,17,17,18,18,19,19,20,20,21,21,22,22,25,25,26,26,29,29,30,30,31,31,32,32,33,33,34,34,35,35,36,36,37,37,38,38,39,39,40,40,41,41,42,42,43,43,44,44,46,46,47,47,48,48,50,50,51,51,52,52,53,53],"right_children":[2,4,6,8,10,12,14,16,18,20,22,24,26,28,30,32,34,36,38,40,42,44,46,-1,-1,48,50,-1,-1,52,54,56,58,60,62,64,66,68,70,72,74,76,78,80,82,-1,84,86,88,-1,90,92,94,96,-1,-1,-1,-1,-1,-1,-1,-1,-1,-1,-1,-1,-1,-1,-1,-1,-1,-1,-1,-1,-1,-1,-1,-1,-1,-1,-1,-1,-1,-1,-1,-1,-1,-1,-1,-1,-1,-1,-1,-1,-1,-1,-1],"split_conditions":[8E-1,-1.25E0,5E0,9.759E-1,9.38E-2,1.453E-1,8.63E0,6.556E-1,1.1E1,2.5013E0,1.8458E0,-1.32886E1,-1.2618E0,1.72E-2,2.6981E0,6.429E1,1.4E1,3.773E-1,3E0,1.8E1,1.453E-1,4.087E-1,-2.8925E0,2.102404E-3,1.0809994E-1,6.847E-1,2.885E-1,-0E0,9.935981E-2,2E0,2.9754E0,4.5873E0,9.724E-1,2E0,-7.843E-1,1E0,5.845E1,7.929E-1,-3.75E-2,1.229E0,1.611E1,6.3718E0,-3.6686E0,-4.4087E0,1.1E0,8.376889E-2,2.8355E0,1.06E0,-3.2904E0,-9.234361E-4,-3.0124E0,3.405E-1,2.2552E0,1.2064E1,-2.0833518E-2,-4.4761315E-2,-0E0,-2.2054998E-2,4.6911772E-2,-1.0263863E-2,-4.193215E-2,-4.518758E-2,3.272311E-2,3.060762E-3,-2.4181025E-2,5.9626546E-2,1.7713605E-3,-0E0,6.406027E-2,-1.5660126E-2,3.1224584E-2,8.614244E-2,-5.2037984E-2,-4.1727122E-2,7.306387E-2,1.0605749E-1,-0E0,8.301395E-3,-5.8529895E-2,-0E0,-5.7588395E-2,-3.4800213E-2,3.029053E-2,-3.1517383E-2,-0E0,5.608475E-2,-0E0,-3.897284E-2,-0E0,-0E0,7.081953E-2,-3.1212872E-2,5.219114E-2,-5.9113633E-2,-0E0,-9.234361E-4,6.4890176E-2],"split_indices":[28,41,27,35,75,5,22,37,27,17,5,7,7,15,36,8,27,9,26,27,5,36,2,0,0,37,39,0,0,20,24,17,3,27,5,26,8,11,5,30,22,19,7,73,41,0,0,24,7,0,33,39,24,14,0,0,0,0,0,0,0,0,0,0,0,0,0,0,0,0,0,0,0,0,0,0,0,0,0,0,0,0,0,0,0,0,0,0,0,0,0,0,0,0,0,0,0],"split_type":[0,0,0,0,0,0,0,0,0,0,0,0,0,0,0,0,0,0,0,0,0,0,0,0,0,0,0,0,0,0,0,0,0,0,0,0,0,0,0,0,0,0,0,0,0,0,0,0,0,0,0,0,0,0,0,0,0,0,0,0,0,0,0,0,0,0,0,0,0,0,0,0,0,0,0,0,0,0,0,0,0,0,0,0,0,0,0,0,0,0,0,0,0,0,0,0,0],"sum_hessian":[1.1696029E3,1.0468843E3,1.2271862E2,8.833381E2,1.6354617E2,8.4723045E1,3.7995575E1,5.9494934E2,2.8838876E2,1.3310251E2,3.0443659E1,3.209564E1,5.2627407E1,6.3719287E0,3.1623646E1,2.0909366E2,3.8585565E2,2.1735356E2,7.10352E1,9.3218956E1,3.9883553E1,2.4779722E1,5.6639366E0,1.1799867E0,3.0915653E1,6.843923E0,4.5783485E1,1.6519815E0,4.7199473E0,2.0767767E1,1.0855878E1,2.0059775E2,8.495905E0,3.4125217E2,4.46035E1,1.6590614E2,5.1447422E1,2.595971E1,4.5075493E1,8.2363075E1,1.0855879E1,9.911889E0,2.9971664E1,1.699181E1,7.7879124E0,2.8319683E0,2.8319683E0,3.5399601E0,3.303963E0,1.8879788E0,4.3895508E1,1.2035865E1,8.731902E0,9.675891E0,1.1799867E0,1.9375383E2,6.843923E0,3.7759576E0,4.719947E0,2.7210495E2,6.9147224E1,9.675891E0,3.492761E1,8.8735E1,7.7171135E1,1.2743856E1,3.8703564E1,2.5959709E0,2.3363737E1,2.1711756E1,2.3363737E1,7.882312E1,3.5399604E0,8.731902E0,2.1239762E0,8.259908E0,1.6519815E0,9.439895E0,2.053177E1,3.7759576E0,1.3215852E1,4.011955E0,3.7759576E0,1.6519815E0,1.1799867E0,1.4159842E0,2.1239762E0,2.1239762E0,1.1799867E0,1.1799867E0,4.271552E1,5.6639366E0,6.3719287E0,7.315918E0,1.4159842E0,1.8879788E0,7.7879124E0],"tree_param":{"num_deleted":"0","num_feature":"77","num_nodes":"97","size_leaf_vector":"1"}},{"base_weights":[-1.8312146E-3,-1.2089235E-1,1.028868E0,6.01916E-1,-2.7960888E-1,1.3797334E0,2.4935839E-1,9.023362E-1,-4.1026637E-1,-5.434635E-1,-0E0,1.8584609E0,6.407091E-1,-1.4857148E-1,7.619955E-1,1.4393489E0,8.837886E-2,-5.7188904E-1,5.714813E-1,-7.0089966E-1,-2.8225085E-1,-1.5163608E-1,6.807541E-1,2.1953286E-1,1.9432045E0,-2.9899573E-1,8.3259946E-1,-5.198057E-1,6.263494E-2,-3.1244118E-2,9.9273705E-1,1.5379685E0,-4.0569875E-1,8.168362E-1,-7.3203564E-1,-8.588521E-1,8.235607E-2,6.838719E-2,-1.7444061E-2,2.0667146E-1,-7.310425E-1,4.0205508E-1,-3.6504856E-1,-5.3705674E-1,-0E0,-0E0,9.0813977E-1,-0E0,3.163689E-2,1.990281E0,3.7384664E-3,5.7044383E-3,-3.6993217E-2,9.953788E-1,-1.253531E-1,-6.711187E-1,2.3481496E-2,-0E0,1.470145E0,1.6872164E-2,8.6836964E-2,-0E0,-4.046491E-2,7.392301E-2,-2.5621349E-2,3.0279074E-2,-6.3980274E-2,-0E0,-4.9021255E-2,4.928791E-2,-2.1843003E-2,4.9058758E-2,-1.1240014E-2,-2.6751375E-2,-4.6313096E-2,4.273679E-2,-2.919232E-2,2.008958E-2,-2.1886965E-2,4.8121296E-2,-2.974464E-2,-2.130404E-3,6.397775E-2,-1.2927084E-2,4.615317E-2,5.2364837E-2,-1.2483926E-2,1.01980545E-1,1.3105919E-2,5.52279E-2,-0E0,5.5798306E-4,-2.4885682E-2,1.5030647E-2,-4.3643367E-2,-2.2278197E-2,4.5785233E-2,-0E0,8.609122E-2],"categories":[],"categories_nodes":[],"categories_segments":[],"categories_sizes":[],"default_left":[0,0,0,0,0,0,0,0,0,0,0,0,0,0,0,0,0,0,0,0,0,0,0,0,0,0,0,0,0,0,0,0,0,0,0,0,0,0,0,0,0,0,0,0,0,0,0,0,0,0,0,0,0,0,0,0,0,0,0,0,0,0,0,0,0,0,0,0,0,0,0,0,0,0,0,0,0,0,0,0,0,0,0,0,0,0,0,0,0,0,0,0,0,0,0,0,0,0,0],"id":1,"left_children":[1,3,5,7,9,11,13,15,17,19,21,23,25,27,29,31,33,35,37,39,41,43,45,47,49,51,53,55,-1,-1,57,59,61,63,65,67,69,-1,-1,71,73,75,77,79,81,83,85,-1,-1,87,-1,-1,-1,89,91,93,-1,95,97,-1,-1,-1,-1,-1,-1,-1,-1,-1,-1,-1,-1,-1,-1,-1,-1,-1,-1,-1,-1,-1,-1,-1,-1,-1,-1,-1,-1,-1,-1,-1,-1,-1,-1,-1,-1,-1,-1,-1,-1],"loss_changes":[1.434592E2,1.2093054E2,3.1107971E1,5.839927E1,6.3846863E1,2.542871E1,8.814753E0,6.2592697E1,7.1870165E0,1.7149582E1,4.358608E1,4.160843E0,7.0402393E0,1.1394083E1,6.9367E0,1.772345E1,3.6679703E1,8.07455E0,5.7002063E0,8.199966E0,9.83727E0,2.0061535E1,1.1973709E1,9.677839E-1,1.788681E0,1.7549608E0,5.667597E0,3.3179698E0,0E0,0E0,6.6104546E0,1.739009E1,1.4023783E0,3.0765852E1,2.2110891E1,3.7610416E0,6.4144874E0,0E0,0E0,3.8357134E0,8.2790985E0,8.670838E0,8.850861E0,8.633713E0,1.3252724E1,4.9903975E0,1.0356167E1,0E0,0E0,8.99704E-1,0E0,0E0,0E0,3.4843674E0,7.131409E-1,4.268857E0,0E0,3.7821915E0,4.4727173E0,0E0,0E0,0E0,0E0,0E0,0E0,0E0,0E0,0E0,0E0,0E0,0E0,0E0,0E0,0E0,0E0,0E0,0E0,0E0,0E0,0E0,0E0,0E0,0E0,0E0,0E0,0E0,0E0,0E0,0E0,0E0,0E0,0E0,0E0,0E0,0E0,0E0,0E0,0E0,0E0],"parents":[2147483647,0,0,1,1,2,2,3,3,4,4,5,5,6,6,7,7,8,8,9,9,10,10,11,11,12,12,13,13,14,14,15,15,16,16,17,17,18,18,19,19,20,20,21,21,22,22,23,23,24,24,25,25,26,26,27,27,30,30,31,31,32,32,33,33,34,34,35,35,36,36,39,39,40,40,41,41,42,42,43,43,44,44,45,45,46,46,49,49,53,53,54,54,55,55,57,57,58,58],"right_children":[2,4,6,8,10,12,14,16,18,20,22,24,26,28,30,32,34,36,38,40,42,44,46,48,50,52,54,56,-1,-1,58,60,62,64,66,68,70,-1,-1,72,74,76,78,80,82,84,86,-1,-1,88,-1,-1,-1,90,92,94,-1,96,98,-1,-1,-1,-1,-1,-1,-1,-1,-1,-1,-1,-1,-1,-1,-1,-1,-1,-1,-1,-1,-1,-1,-1,-1,-1,-1,-1,-1,-1,-1,-1,-1,-1,-1,-1,-1,-1,-1,-1,-1],"split_conditions":[8E-1,3.125E-1,4E0,9.38E-2,7.418E-1,1.7114E0,1.1006E0,1.6173E0,4E0,1.708E0,8E0,-4.3556E0,1.626E0,1.3657E0,4.751E-1,1.229E0,4.0199E0,2.2523E0,4.127E-1,-1.23E-1,1.6122E0,6.604E-1,-4.618E-1,-4.878E-1,3.438E-1,-6.1562E0,1.6382E0,1.2569E0,6.263494E-2,-3.1244118E-2,-9.51E-2,8.003E-1,-1.0461E0,6.963E-1,-3.6686E0,1.1124E1,5.288E1,6.838719E-2,-1.7444061E-2,6.777E-1,1.15986E1,9.29E-1,-1.44385E1,1.0764E0,6E-1,1.6667E0,1.575E1,-0E0,3.163689E-2,6.3099E0,3.7384664E-3,5.7044383E-3,-3.6993217E-2,1.5087E0,1.5348E0,-9.89E-2,2.3481496E-2,1.1847E0,-6.947E-1,1.6872164E-2,8.6836964E-2,-0E0,-4.046491E-2,7.392301E-2,-2.5621349E-2,3.0279074E-2,-6.3980274E-2,-0E0,-4.9021255E-2,4.928791E-2,-2.1843003E-2,4.9058758E-2,-1.1240014E-2,-2.6751375E-2,-4.6313096E-2,4.273679E-2,-2.919232E-2,2.008958E-2,-2.1886965E-2,4.8121296E-2,-2.974464E-2,-2.130404E-3,6.397775E-2,-1.2927084E-2,4.615317E-2,5.2364837E-2,-1.2483926E-2,1.01980545E-1,1.3105919E-2,5.52279E-2,-0E0,5.5798306E-4,-2.4885682E-2,1.5030647E-2,-4.3643367E-2,-2.2278197E-2,4.5785233E-2,-0E0,8.609122E-2],"split_indices":[28,43,27,75,71,5,24,5,27,16,27,33,7,37,37,30,18,71,39,32,72,37,36,38,75,71,10,4,0,0,32,16,0,38,7,14,8,0,0,38,14,6,2,72,28,21,42,0,0,18,0,0,0,37,11,0,0,4,0,0,0,0,0,0,0,0,0,0,0,0,0,0,0,0,0,0,0,0,0,0,0,0,0,0,0,0,0,0,0,0,0,0,0,0,0,0,0,0,0],"split_type":[0,0,0,0,0,0,0,0,0,0,0,0,0,0,0,0,0,0,0,0,0,0,0,0,0,0,0,0,0,0,0,0,0,0,0,0,0,0,0,0,0,0,0,0,0,0,0,0,0,0,0,0,0,0,0,0,0,0,0,0,0,0,0,0,0,0,0,0,0,0,0,0,0,0,0,0,0,0,0,0,0,0,0,0,0,0,0,0,0,0,0,0,0,0,0,0,0,0,0],"sum_hessian":[1.1744174E3,1.054464E3,1.1995339E2,1.8821664E2,8.662473E2,8.130452E1,3.8648876E1,1.4598433E2,4.2232307E1,4.4473578E2,4.2151154E2,4.760131E1,3.3703205E1,2.1060411E1,1.7588467E1,8.6752205E1,5.9232132E1,3.7495575E1,4.7367315E0,2.7405054E2,1.7068524E2,3.456597E2,7.5851845E1,3.0969837E0,4.4504326E1,4.736866E0,2.8966341E1,1.771098E1,3.349431E0,1.6470189E0,1.5941448E1,8.3022964E1,3.7292333E0,3.2022327E1,2.7209806E1,2.69087E1,1.0586875E1,2.861504E0,1.8752277E0,7.5546722E0,2.6649585E2,1.6703203E1,1.5398204E2,9.6189835E1,2.4946986E2,1.9148628E1,5.6703213E1,1.1864902E0,1.9104935E0,4.2824905E1,1.6794217E0,1.6571345E0,3.0797315E0,2.561804E1,3.3483E0,1.6517393E1,1.1935873E0,6.1579275E0,9.783521E0,1.2891303E1,7.013167E1,1.399629E0,2.3296041E0,2.180782E1,1.0214508E1,7.3421144E0,1.9867691E1,2.5795214E0,2.432918E1,4.2388983E0,6.347976E0,3.076285E0,4.4783874E0,1.3739952E2,1.2909634E2,1.2233488E1,4.4697146E0,1.1749378E1,1.4223267E2,2.3493268E0,9.384051E1,2.4264558E2,6.8242874E0,1.5593442E1,3.5551867E0,5.1475567E1,5.2276483E0,4.08986E1,1.9263058E0,2.3471947E1,2.1460931E0,1.1947486E0,2.1535516E0,1.9033111E0,1.4614081E1,3.7787685E0,2.3791587E0,1.4133911E0,8.37013E0],"tree_param":{"num_deleted":"0","num_feature":"77","num_nodes":"99","size_leaf_vector":"1"}},{"base_weights":[2.1840403E-2,-9.7318836E-2,9.7043717E-1,-2.4124686E-1,6.299467E-1,1.3226024E0,1.5485887E-1,-5.276009E-1,4.4440705E-2,8.746881E-1,-3.9932403E-1,1.8183026E0,7.9642326E-1,1.0822599E0,-1.2813766E-1,-7.043402E-1,-2.3364286E-1,-9.581115E-2,7.1592915E-1,1.1164725E0,-8.627246E-1,6.669826E-1,-6.454584E-1,1.8995016E0,1.0235258E-1,-0E0,9.959849E-1,-1.84069E-2,1.5431491E0,-9.145025E-1,3.0982447E-1,-5.233669E-1,-8.7712085E-1,-2.9850286E-1,5.765462E-1,-4.867405E-1,6.7997195E-2,-1.2932994E-2,9.848607E-1,1.2058129E0,-6.575686E-1,7.034441E-2,-6.722527E-2,-2.1929367E-2,8.230718E-2,-8.913401E-1,1.3720459E-1,2.907286E-1,1.9627147E0,-1.0824277E-3,2.8834185E-2,4.2004877E-1,-5.297694E-1,1.865239E-1,1.2666719E0,9.294317E-2,-0E0,-0E0,-1.0702783E0,-4.0464863E-2,5.4934007E-1,-4.3595545E-2,-6.6974643E-3,-4.5802087E-2,2.7102826E-2,-6.977316E-3,-3.147814E-2,-2.5712078E-2,4.3506697E-2,4.4729415E-2,-2.7867088E-2,8.515286E-3,-2.4541123E-2,-1.5402108E-2,4.4143286E-2,6.0897417E-2,-2.0100435E-3,6.541415E-2,-1.881074E-2,-0E0,-5.1170398E-2,-5.1026624E-2,3.8820617E-3,3.4793325E-2,-3.0026047E-2,-0E0,4.425626E-2,-0E0,1.0009803E-1,-0E0,5.234119E-2,-0E0,-4.3116186E-2,-1.6490312E-2,4.3550283E-2,7.887881E-2,2.0213678E-2,-0E0,-6.014804E-2,5.1111378E-2,-5.962298E-3],"categories":[],"categories_nodes":[],"categories_segments":[],"categories_sizes":[],"default_left":[0,0,0,0,0,0,0,0,0,0,0,0,0,0,0,0,0,0,0,0,0,0,0,0,0,0,0,0,0,0,0,0,0,0,0,0,0,0,0,0,0,0,0,0,0,0,0,0,0,0,0,0,0,0,0,0,0,0,0,0,0,0,0,0,0,0,0,0,0,0,0,0,0,0,0,0,0,0,0,0,0,0,0,0,0,0,0,0,0,0,0,0,0,0,0,0,0,0,0,0,0],"id":2,"left_children":[1,3,5,7,9,11,13,15,17,19,21,23,25,27,29,31,33,35,37,39,41,43,45,47,49,51,53,-1,55,57,59,61,63,65,67,69,71,73,75,77,79,-1,-1,-1,-1,81,83,85,87,-1,-1,89,91,93,95,-1,-1,-1,97,-1,99,-1,-1,-1,-1,-1,-1,-1,-1,-1,-1,-1,-1,-1,-1,-1,-1,-1,-1,-1,-1,-1,-1,-1,-1,-1,-1,-1,-1,-1,-1,-1,-1,-1,-1,-1,-1,-1,-1,-1,-1],"loss_changes":[1.3505247E2,1.10071304E2,3.6635185E1,7.262805E1,4.4462013E1,1.9981949E1,1.217404E1,2.1866837E1,4.217257E1,6.0469093E1,9.117102E0,4.1726837E0,7.480345E0,8.965119E0,1.2052819E1,6.691925E0,8.807726E0,2.3763353E1,1.6167282E1,2.1114807E1,2.0734928E1,8.373109E0,6.3085403E0,1.5520477E0,7.838901E-1,2.5693712E0,6.6143837E0,0E0,3.8295574E0,1.7568979E0,5.747115E0,1.772762E1,8.360649E0,7.5026445E0,4.5730143E0,1.0832304E1,1.4376802E1,5.2120376E0,1.4987904E1,2.0823685E1,2.2884943E0,0E0,0E0,0E0,0E0,3.8494148E0,3.2507722E0,1.4417803E0,1.4148712E0,0E0,0E0,1.5297105E0,1.0968245E0,4.926627E0,4.700733E0,0E0,0E0,0E0,1.2130909E0,0E0,6.8503103E0,0E0,0E0,0E0,0E0,0E0,0E0,0E0,0E0,0E0,0E0,0E0,0E0,0E0,0E0,0E0,0E0,0E0,0E0,0E0,0E0,0E0,0E0,0E0,0E0,0E0,0E0,0E0,0E0,0E0,0E0,0E0,0E0,0E0,0E0,0E0,0E0,0E0,0E0,0E0,0E0],"parents":[2147483647,0,0,1,1,2,2,3,3,4,4,5,5,6,6,7,7,8,8,9,9,10,10,11,11,12,12,13,13,14,14,15,15,16,16,17,17,18,18,19,19,20,20,21,21,22,22,23,23,24,24,25,25,26,26,28,28,29,29,30,30,31,31,32,32,33,33,34,34,35,35,36,36,37,37,38,38,39,39,40,40,45,45,46,46,47,47,48,48,51,51,52,52,53,53,54,54,58,58,60,60],"right_children":[2,4,6,8,10,12,14,16,18,20,22,24,26,28,30,32,34,36,38,40,42,44,46,48,50,52,54,-1,56,58,60,62,64,66,68,70,72,74,76,78,80,-1,-1,-1,-1,82,84,86,88,-1,-1,90,92,94,96,-1,-1,-1,98,-1,100,-1,-1,-1,-1,-1,-1,-1,-1,-1,-1,-1,-1,-1,-1,-1,-1,-1,-1,-1,-1,-1,-1,-1,-1,-1,-1,-1,-1,-1,-1,-1,-1,-1,-1,-1,-1,-1,-1,-1,-1],"split_conditions":[8E-1,-1.25E0,5E0,7.418E-1,1.875E-1,1E0,9.173E-1,1.708E0,1.1E1,3.7657E0,-4.7597E0,1.44754E1,3.835E-1,7.342E-1,1.22341E1,1.15986E1,5.7928E0,6.847E-1,-4.618E-1,1.229E0,1.376E1,8.748E-1,7.996E-1,-9.8237E0,1.25E0,1.971E1,1.524E1,-1.84069E-2,3.2E1,-3.304E-1,9.985E-1,6.487E-1,1E0,-3.5762E0,2.5874E0,1.0764E0,3E0,1.6667E0,1.0255E0,1.6667E0,-1.12715E1,7.034441E-2,-6.722527E-2,-2.1929367E-2,8.230718E-2,1.5E1,5.0351E0,-3.179E-1,1.7E-3,-1.0824277E-3,2.8834185E-2,9.7455E0,8.311E-1,9.762E-1,3.6515E0,9.294317E-2,-0E0,-0E0,1.09084E1,-4.0464863E-2,1.864E1,-4.3595545E-2,-6.6974643E-3,-4.5802087E-2,2.7102826E-2,-6.977316E-3,-3.147814E-2,-2.5712078E-2,4.3506697E-2,4.4729415E-2,-2.7867088E-2,8.515286E-3,-2.4541123E-2,-1.5402108E-2,4.4143286E-2,6.0897417E-2,-2.0100435E-3,6.541415E-2,-1.881074E-2,-0E0,-5.1170398E-2,-5.1026624E-2,3.8820617E-3,3.4793325E-2,-3.0026047E-2,-0E0,4.425626E-2,-0E0,1.0009803E-1,-0E0,5.234119E-2,-0E0,-4.3116186E-2,-1.6490312E-2,4.3550283E-2,7.887881E-2,2.0213678E-2,-0E0,-6.014804E-2,5.1111378E-2,-5.962298E-3],"split_indices":[28,41,27,71,74,5,12,16,27,5,1,14,39,11,14,14,2,37,36,30,22,3,7,7,21,22,22,0,27,5,12,37,61,2,17,72,27,21,10,21,2,0,0,0,0,27,2,38,40,0,0,7,10,3,17,0,0,0,14,0,22,0,0,0,0,0,0,0,0,0,0,0,0,0,0,0,0,0,0,0,0,0,0,0,0,0,0,0,0,0,0,0,0,0,0,0,0,0,0,0,0],"split_type":[0,0,0,0,0,0,0,0,0,0,0,0,0,0,0,0,0,0,0,0,0,0,0,0,0,0,0,0,0,0,0,0,0,0,0,0,0,0,0,0,0,0,0,0,0,0,0,0,0,0,0,0,0,0,0,0,0,0,0,0,0,0,0,0,0,0,0,0,0,0,0,0,0,0,0,0,0,0,0,0,0,0,0,0,0,0,0,0,0,0,0,0,0,0,0,0,0,0,0,0,0],"sum_hessian":[1.1852345E3,1.0528257E3,1.3240886E2,8.805963E2,1.7222935E2,9.118678E1,4.122208E1,4.411104E2,4.394859E2,1.4004987E2,3.21795E1,4.4710224E1,4.6476562E1,9.803757E0,3.1418325E1,2.7248413E2,1.6862627E2,3.6302914E2,7.6456764E1,1.2375995E2,1.6289906E1,4.952324E0,2.7227175E1,4.203155E1,2.6786716E0,9.578591E0,3.689797E1,1.8894058E0,7.914351E0,1.1666407E1,1.9751919E1,1.3788152E2,1.3460263E2,1.5785497E2,1.0771297E1,1.084193E2,2.5460983E2,1.9861458E1,5.6595306E1,1.1866785E2,5.0921082E0,2.1527472E0,1.4137159E1,2.1056414E0,2.8466823E0,2.1584892E1,5.642283E0,2.3988771E0,3.9632675E1,1.208793E0,1.4698784E0,5.52716E0,4.0514317E0,1.059578E1,2.6302189E1,6.2517157E0,1.6626353E0,1.8850462E0,9.78136E0,2.3266778E0,1.742524E1,7.07503E1,6.713121E1,1.3204057E2,2.56205E0,1.096495E2,4.8205467E1,1.4025581E0,9.36874E0,4.015725E0,1.0440357E2,2.1730959E2,3.7300247E1,1.6272984E1,3.5884738E0,4.6751842E1,9.843467E0,1.12205284E2,6.4625583E0,1.3920219E0,3.7000866E0,1.9909243E1,1.6756499E0,4.0144753E0,1.6278076E0,1.1918802E0,1.2069969E0,1.2244592E0,3.8408215E1,4.080298E0,1.4468622E0,1.6698691E0,2.3815622E0,5.5023556E0,5.0934253E0,1.787074E1,8.431449E0,1.4088544E0,8.372506E0,1.0772594E1,6.652646E0],"tree_param":{"num_deleted":"0","num_feature":"77","num_nodes":"101","size_leaf_vector":"1"}},{"base_weights":[-1.8635985E-2,-1.3811347E-1,9.15462E-1,-2.6130876E-1,4.9214706E-1,1.2674947E0,2.8662047E-1,-4.7633648E-1,-0E0,7.340414E-1,-5.892916E-1,1.5838237E0,5.490093E-1,-5.4898274E-1,6.3501775E-1,-0E0,-5.739298E-1,-1.358573E-1,4.17871E-1,1.1600767E0,-7.3039874E-2,2.990498E-1,-7.691828E-1,1.6392481E0,-0E0,1.50708E0,1.4147477E-1,2.194703E-2,-7.9161483E-1,-2.2151183E-2,9.0621257E-1,-1.898965E-1,5.9356046E-1,-8.4377426E-1,-4.3178284E-1,9.874515E-2,-3.626483E-1,-2.2795084E-1,7.1598047E-1,1.3452797E0,-5.2051794E-2,1.3187792E0,-5.0534564E-1,-3.3748534E-2,7.016979E-2,-1.0669961E0,-7.0451304E-2,-0E0,1.6757902E0,-2.330309E-2,4.1655507E-2,8.775754E-2,-0E0,-5.5507496E-2,5.5284556E-2,-9.9591476E-1,-0E0,-3.7407798E-1,2.6736543E-2,1.111134E0,-0E0,2.2791438E-2,-2.0339478E-2,5.3208668E-2,-0E0,-4.5005497E-2,5.957305E-3,-2.6866082E-2,7.772252E-3,-9.019025E-3,1.5009395E-2,-2.2440756E-2,4.4120118E-2,-4.2313393E-2,1.6455978E-2,4.0977295E-2,-2.896031E-3,1.2112417E-3,7.933876E-2,-4.9314078E-2,5.9800465E-2,-0E0,8.471632E-2,1.468481E-2,-6.0466457E-2,-6.0105164E-2,-0E0,1.6068233E-2,-3.0616207E-2,6.9587823E-4,8.556144E-2,1.1995117E-2,-3.7776865E-2,-5.624338E-2,-0E0,1.4701887E-3,-5.122539E-2,6.212306E-2,-0E0,-2.5320364E-2,2.2437667E-2],"categories":[],"categories_nodes":[],"categories_segments":[],"categories_sizes":[],"default_left":[0,0,0,0,0,0,0,0,0,0,0,0,0,0,0,0,0,0,0,0,0,0,0,0,0,0,0,0,0,0,0,0,0,0,0,0,0,0,0,0,0,0,0,0,0,0,0,0,0,0,0,0,0,0,0,0,0,0,0,0,0,0,0,0,0,0,0,0,0,0,0,0,0,0,0,0,0,0,0,0,0,0,0,0,0,0,0,0,0,0,0,0,0,0,0,0,0,0,0,0,0],"id":3,"left_children":[1,3,5,7,9,11,13,15,17,19,21,23,25,27,29,31,33,35,37,39,41,43,45,47,49,51,53,-1,55,57,59,61,63,65,67,69,71,73,75,77,79,81,83,-1,-1,85,87,-1,89,-1,-1,-1,-1,91,-1,93,-1,95,-1,97,99,-1,-1,-1,-1,-1,-1,-1,-1,-1,-1,-1,-1,-1,-1,-1,-1,-1,-1,-1,-1,-1,-1,-1,-1,-1,-1,-1,-1,-1,-1,-1,-1,-1,-1,-1,-1,-1,-1,-1,-1],"loss_changes":[1.31431E2,8.1510445E1,2.7611969E1,4.903919E1,4.5278873E1,1.6135864E1,1.5044802E1,2.2337746E1,2.2534472E1,4.960125E1,5.6596603E0,3.6478577E0,9.163542E0,4.1660194E0,7.4495792E0,9.437125E0,1.3678711E1,1.6532257E1,1.9288284E1,2.2253204E1,2.9210524E1,7.0649304E0,4.410962E0,2.4960785E0,2.0229108E0,1.7516155E0,5.222979E0,0E0,2.5450659E0,2.1221929E0,5.0894794E0,9.05691E0,5.421367E0,8.174347E0,1.6953857E1,8.528349E0,1.686034E1,1.1222439E1,6.2217293E0,2.4343262E1,1.5638636E1,5.8207626E0,2.2927261E1,0E0,0E0,3.1544724E0,2.6428025E0,0E0,1.3768616E0,0E0,0E0,0E0,0E0,4.4327745E0,0E0,1.4038763E0,0E0,3.177443E0,0E0,4.253233E0,1.5827004E0,0E0,0E0,0E0,0E0,0E0,0E0,0E0,0E0,0E0,0E0,0E0,0E0,0E0,0E0,0E0,0E0,0E0,0E0,0E0,0E0,0E0,0E0,0E0,0E0,0E0,0E0,0E0,0E0,0E0,0E0,0E0,0E0,0E0,0E0,0E0,0E0,0E0,0E0,0E0,0E0],"parents":[2147483647,0,0,1,1,2,2,3,3,4,4,5,5,6,6,7,7,8,8,9,9,10,10,11,11,12,12,13,13,14,14,15,15,16,16,17,17,18,18,19,19,20,20,21,21,22,22,23,23,24,24,25,25,26,26,28,28,29,29,30,30,31,31,32,32,33,33,34,34,35,35,36,36,37,37,38,38,39,39,40,40,41,41,42,42,45,45,46,46,48,48,53,53,55,55,57,57,59,59,60,60],"right_children":[2,4,6,8,10,12,14,16,18,20,22,24,26,28,30,32,34,36,38,40,42,44,46,48,50,52,54,-1,56,58,60,62,64,66,68,70,72,74,76,78,80,82,84,-1,-1,86,88,-1,90,-1,-1,-1,-1,92,-1,94,-1,96,-1,98,100,-1,-1,-1,-1,-1,-1,-1,-1,-1,-1,-1,-1,-1,-1,-1,-1,-1,-1,-1,-1,-1,-1,-1,-1,-1,-1,-1,-1,-1,-1,-1,-1,-1,-1,-1,-1,-1,-1,-1,-1],"split_conditions":[8E-1,-1.25E0,2.0408E0,-1.4521E0,9.38E-2,4E0,3.835E-1,-1.704E0,8E0,1.77E1,-4.7597E0,6.3099E0,-9.05E-2,7.648E-1,1.0333E0,9.233E-1,3.405E-1,1E0,-4.012E-1,6E0,4.963E-1,8.748E-1,1.125E-1,1.7E-3,4.3948E0,2.5E1,2.166E1,2.194703E-2,3.773E-1,1.899E-1,6E0,-5.1256E0,3.419E-1,2.996E-1,9E0,1.21717E1,6E-1,2.55E-2,9.929E-1,-1.252E-1,1.369E1,8.496E-1,8.592E-1,-3.3748534E-2,7.016979E-2,2.0247E0,1.0567E0,-0E0,2.19E1,-2.330309E-2,4.1655507E-2,8.775754E-2,-0E0,5.564E-1,5.5284556E-2,1.76402E1,-0E0,5.564E-1,2.6736543E-2,9.905E-1,1.0416E0,2.2791438E-2,-2.0339478E-2,5.3208668E-2,-0E0,-4.5005497E-2,5.957305E-3,-2.6866082E-2,7.772252E-3,-9.019025E-3,1.5009395E-2,-2.2440756E-2,4.4120118E-2,-4.2313393E-2,1.6455978E-2,4.0977295E-2,-2.896031E-3,1.2112417E-3,7.933876E-2,-4.9314078E-2,5.9800465E-2,-0E0,8.471632E-2,1.468481E-2,-6.0466457E-2,-6.0105164E-2,-0E0,1.6068233E-2,-3.0616207E-2,6.9587823E-4,8.556144E-2,1.1995117E-2,-3.7776865E-2,-5.624338E-2,-0E0,1.4701887E-3,-5.122539E-2,6.212306E-2,-0E0,-2.5320364E-2,2.2437667E-2],"split_indices":[28,41,5,2,75,27,39,36,27,22,1,18,76,37,11,3,39,26,36,26,5,3,1,40,17,27,22,0,9,9,27,33,39,9,27,14,28,15,3,9,22,11,24,0,0,72,4,0,8,0,0,0,0,39,0,34,0,39,0,38,37,0,0,0,0,0,0,0,0,0,0,0,0,0,0,0,0,0,0,0,0,0,0,0,0,0,0,0,0,0,0,0,0,0,0,0,0,0,0,0,0],"split_type":[0,0,0,0,0,0,0,0,0,0,0,0,0,0,0,0,0,0,0,0,0,0,0,0,0,0,0,0,0,0,0,0,0,0,0,0,0,0,0,0,0,0,0,0,0,0,0,0,0,0,0,0,0,0,0,0,0,0,0,0,0,0,0,0,0,0,0,0,0,0,0,0,0,0,0,0,0,0,0,0,0,0,0,0,0,0,0,0,0,0,0,0,0,0,0,0,0,0,0,0,0],"sum_hessian":[1.1824906E3,1.0500986E3,1.3239206E2,8.8021704E2,1.6988156E2,8.320636E1,4.9185696E1,4.803239E2,3.9989313E2,1.398468E2,3.0034758E1,5.5968697E1,2.7237667E1,1.3459098E1,3.5726597E1,8.196059E1,3.9836334E2,3.0409018E2,9.580294E1,9.205515E1,4.779165E1,4.010205E0,2.6024553E1,5.3539024E1,2.4296722E0,6.5910306E0,2.0646635E1,1.6815988E0,1.1777498E1,9.627597E0,2.6099E1,6.2693764E1,1.926682E1,1.3331467E2,2.6504868E2,1.4758112E2,1.5650906E2,2.9271114E1,6.653182E1,8.047447E1,1.1580674E1,1.0292131E1,3.749952E1,1.8562793E0,2.1539254E0,1.6874214E1,9.15034E0,1.4637767E0,5.207525E1,1.2052703E0,1.2244018E0,5.165464E0,1.4255666E0,1.7065584E1,3.5810518E0,9.638884E0,2.138615E0,7.200898E0,2.4266987E0,2.1147528E1,4.9514737E0,1.4327201E1,4.836656E1,1.0092311E1,9.174511E0,1.26988914E2,6.3257537E0,2.2618564E2,3.8863014E1,5.982542E1,8.77557E1,1.4772789E2,8.781172E0,1.4477674E1,1.4793442E1,5.9766846E1,6.764979E0,1.3247538E1,6.722694E1,7.2012258E0,4.3794484E0,2.423416E0,7.8687153E0,1.7171587E1,2.0327932E1,1.52651E1,1.6091142E0,4.4756117E0,4.674728E0,1.7055373E0,5.0369713E1,1.14588E1,5.606783E0,8.448951E0,1.1899331E0,4.0845027E0,3.1163955E0,1.9468216E1,1.679312E0,2.3197699E0,2.6317039E0],"tree_param":{"num_deleted":"0","num_feature":"77","num_nodes":"101","size_leaf_vector":"1"}},{"base_weights":[-1.3558E-2,-1.283928E-1,9.1939956E-1,-2.7320012E-1,4.6498856E-1,1.1726915E0,2.5812808E-1,-5.481892E-1,-0E0,1.2035187E0,1.7598529E-1,8.850537E-2,7.803447E-1,-6.965317E-1,5.403755E-1,-5.8693385E-1,5.164574E-1,-1.4336523E-1,6.720364E-1,-1.2395695E-1,1.4194623E0,4.6537215E-1,-4.0649927E-1,-0E0,9.3332064E-1,1.1761952E-2,-5.8794137E-2,-0E0,1.2257361E0,-7.35915E-1,-3.3514097E-1,8.6471826E-1,-4.095505E-1,-4.9135026E-1,-0E0,-0E0,8.6822706E-1,9.2714334E-1,-5.7351876E-2,1.6434902E0,-1.6125768E-1,9.518493E-1,-1.6167696E-1,9.449563E-1,-5.9397626E-1,-5.71459E-1,4.5013544E-1,1.4486915E0,5.5638045E-1,-7.0271003E-1,3.7347874E-1,1.4021599E0,-0E0,1.3487798E-2,-3.8340237E-2,1.1989178E-2,-2.2294184E-2,-1.8883973E-2,5.6740087E-2,-0E0,-3.1439546E-2,-4.0313985E-2,-9.567748E-3,4.4587865E-3,-2.6104514E-2,-4.026852E-2,1.3965155E-2,6.466536E-2,9.956693E-3,-0E0,6.2200893E-2,1.702596E-2,9.452438E-2,-5.0795373E-2,3.1550083E-2,2.5135038E-2,8.616494E-2,2.7185557E-2,-3.9236136E-2,-1.8012596E-2,7.8564934E-2,-4.0747058E-2,-0E0,-0E0,-4.9688626E-2,4.9429238E-2,-1.4234357E-2,7.772234E-2,-0E0,-6.756143E-3,4.7663197E-2,1.8023503E-3,-5.3667653E-2,-1.38202105E-2,3.5831288E-2,-0E0,7.9977E-2],"categories":[],"categories_nodes":[],"categories_segments":[],"categories_sizes":[],"default_left":[0,0,0,0,0,0,0,0,0,0,0,0,0,0,0,0,0,0,0,0,0,0,0,0,0,0,0,0,0,0,0,0,0,0,0,0,0,0,0,0,0,0,0,0,0,0,0,0,0,0,0,0,0,0,0,0,0,0,0,0,0,0,0,0,0,0,0,0,0,0,0,0,0,0,0,0,0,0,0,0,0,0,0,0,0,0,0,0,0,0,0,0,0,0,0,0,0],"id":4,"left_children":[1,3,5,7,9,11,13,15,17,19,21,-1,23,25,27,29,31,33,35,37,39,41,43,45,47,-1,-1,49,51,53,55,57,59,61,63,65,67,69,-1,71,73,75,77,79,81,83,85,87,89,91,93,95,-1,-1,-1,-1,-1,-1,-1,-1,-1,-1,-1,-1,-1,-1,-1,-1,-1,-1,-1,-1,-1,-1,-1,-1,-1,-1,-1,-1,-1,-1,-1,-1,-1,-1,-1,-1,-1,-1,-1,-1,-1,-1,-1,-1,-1],"loss_changes":[1.25317474E2,9.006589E1,1.9714622E1,6.3318447E1,4.211652E1,1.7447876E1,1.0416319E1,1.7723656E1,4.0926476E1,1.765393E1,2.5419344E1,0E0,6.962681E0,4.90794E0,1.0759401E1,1.3958069E1,5.451635E0,1.7165564E1,9.101959E0,1.0069158E1,1.919918E1,3.1868713E1,1.2612884E1,2.9443793E0,6.59832E0,0E0,0E0,4.9589005E0,3.2814312E0,8.548111E0,1.0226757E1,5.0670595E0,4.056605E-1,8.39624E0,1.2118816E1,4.0161343E0,1.43966675E1,1.023783E0,0E0,1.1223915E1,5.409534E0,1.704977E1,2.0113506E1,6.436508E0,5.0880556E0,2.1711698E0,3.4889889E0,3.009781E0,9.377789E0,2.8091428E0,3.5693493E0,2.0331726E0,0E0,0E0,0E0,0E0,0E0,0E0,0E0,0E0,0E0,0E0,0E0,0E0,0E0,0E0,0E0,0E0,0E0,0E0,0E0,0E0,0E0,0E0,0E0,0E0,0E0,0E0,0E0,0E0,0E0,0E0,0E0,0E0,0E0,0E0,0E0,0E0,0E0,0E0,0E0,0E0,0E0,0E0,0E0,0E0,0E0],"parents":[2147483647,0,0,1,1,2,2,3,3,4,4,5,5,6,6,7,7,8,8,9,9,10,10,12,12,13,13,14,14,15,15,16,16,17,17,18,18,19,19,20,20,21,21,22,22,23,23,24,24,27,27,28,28,29,29,30,30,31,31,32,32,33,33,34,34,35,35,36,36,37,37,39,39,40,40,41,41,42,42,43,43,44,44,45,45,46,46,47,47,48,48,49,49,50,50,51,51],"right_children":[2,4,6,8,10,12,14,16,18,20,22,-1,24,26,28,30,32,34,36,38,40,42,44,46,48,-1,-1,50,52,54,56,58,60,62,64,66,68,70,-1,72,74,76,78,80,82,84,86,88,90,92,94,96,-1,-1,-1,-1,-1,-1,-1,-1,-1,-1,-1,-1,-1,-1,-1,-1,-1,-1,-1,-1,-1,-1,-1,-1,-1,-1,-1,-1,-1,-1,-1,-1,-1,-1,-1,-1,-1,-1,-1,-1,-1,-1,-1,-1,-1],"split_conditions":[8E-1,-1.96E0,5E0,7.418E-1,1.11678E1,1.453E-1,-3.4E-3,5.9593E0,1.4E1,8.003E-1,1.875E-1,8.850537E-2,7.5E-1,-5.0809E0,8E0,1.708E0,1.37934E1,6.809E-1,1.16551E1,8.7E-3,7.59E-1,1.6173E0,-4.9814E0,1.6949E0,1.7716E0,1.1761952E-2,-5.8794137E-2,8.057E-1,1.41404E1,-1.23E-1,-5.363E-1,1.17672E1,1.32998E1,5.9928E0,3E0,-4.156E-1,4.2069E0,2.449E-1,-5.7351876E-2,1.06E0,8.75E-1,5.893E-1,-1.8018E0,-1.17879E1,2.1294E0,6.449E-1,1.0508E0,4.0719E0,8.5494E0,2.7708E0,1.2064E1,4.207E1,-0E0,1.3487798E-2,-3.8340237E-2,1.1989178E-2,-2.2294184E-2,-1.8883973E-2,5.6740087E-2,-0E0,-3.1439546E-2,-4.0313985E-2,-9.567748E-3,4.4587865E-3,-2.6104514E-2,-4.026852E-2,1.3965155E-2,6.466536E-2,9.956693E-3,-0E0,6.2200893E-2,1.702596E-2,9.452438E-2,-5.0795373E-2,3.1550083E-2,2.5135038E-2,8.616494E-2,2.7185557E-2,-3.9236136E-2,-1.8012596E-2,7.8564934E-2,-4.0747058E-2,-0E0,-0E0,-4.9688626E-2,4.9429238E-2,-1.4234357E-2,7.772234E-2,-0E0,-6.756143E-3,4.7663197E-2,1.8023503E-3,-5.3667653E-2,-1.38202105E-2,3.5831288E-2,-0E0,7.9977E-2],"split_indices":[28,41,27,71,14,5,9,2,27,16,74,0,21,34,27,16,14,37,14,15,38,5,73,7,36,0,0,37,14,32,38,14,2,71,27,5,19,5,0,17,11,34,7,2,71,37,10,5,71,6,14,8,0,0,0,0,0,0,0,0,0,0,0,0,0,0,0,0,0,0,0,0,0,0,0,0,0,0,0,0,0,0,0,0,0,0,0,0,0,0,0,0,0,0,0,0,0],"split_type":[0,0,0,0,0,0,0,0,0,0,0,0,0,0,0,0,0,0,0,0,0,0,0,0,0,0,0,0,0,0,0,0,0,0,0,0,0,0,0,0,0,0,0,0,0,0,0,0,0,0,0,0,0,0,0,0,0,0,0,0,0,0,0,0,0,0,0,0,0,0,0,0,0,0,0,0,0,0,0,0,0,0,0,0,0,0,0,0,0,0,0,0,0,0,0,0,0],"sum_hessian":[1.1749861E3,1.0479336E3,1.2705259E2,8.4415326E2,2.0378026E2,9.021226E1,3.6840332E1,4.196139E2,4.245394E2,5.5451866E1,1.483284E2,3.3358227E1,5.6854034E1,7.2631183E0,2.9577215E1,4.0621875E2,1.3395142E1,3.50937E2,7.36024E1,7.1700945E0,4.8281773E1,1.0037731E2,4.795108E1,9.417801E0,4.7436234E1,1.9315802E0,5.3315377E0,1.7473022E1,1.2104193E1,2.5151048E2,1.5470827E2,1.0567078E1,2.8280642E0,1.0006295E2,2.5087405E2,1.7831606E1,5.5770798E1,3.1007526E0,4.069342E0,4.280775E1,5.474023E0,5.7130856E1,4.324646E1,4.6995206E0,4.3251556E1,4.0900846E0,5.327716E0,1.7716774E1,2.971946E1,5.3296204E0,1.2143402E1,1.0683083E1,1.4211104E0,6.2998896E0,2.4521059E2,2.3340427E1,1.3136783E2,1.1546569E0,9.41242E0,1.178074E0,1.6499902E0,4.636686E1,5.369609E1,2.1367717E2,3.7196873E1,3.3270545E0,1.4504552E1,3.261974E1,2.315106E1,1.1614748E0,1.9392776E0,7.8459177E0,3.4961834E1,3.104724E0,2.3692992E0,3.797132E1,1.9159534E1,1.9589878E1,2.3656582E1,1.1439507E0,3.55557E0,3.0169172E1,1.3082387E1,1.2084748E0,2.8816097E0,3.6607764E0,1.6669395E0,1.6502264E1,1.2145092E0,1.0159001E1,1.9560457E1,1.1808027E0,4.1488175E0,3.2564125E0,8.88699E0,1.9107723E0,8.77231E0],"tree_param":{"num_deleted":"0","num_feature":"77","num_nodes":"97","size_leaf_vector":"1"}},{"base_weights":[-4.7277207E-3,-1.1259234E-1,8.66178E-1,5.4513687E-1,-2.1936634E-1,1.3194975E0,4.0517572E-1,1.0905066E0,-6.633025E-2,-4.2828867E-1,-2.5167728E-3,1.6142638E0,4.9389145E-1,6.765735E-1,-2.0902885E-1,-2.248499E-1,1.2864678E0,3.408283E-1,-7.298809E-1,-4.84187E-1,1.1144013E0,-1.4383557E-1,6.73698E-1,1.6440407E0,-0E0,-4.4535942E-2,8.261596E-1,-6.0479775E-2,8.3600044E-1,-8.4902096E-1,5.273435E-1,-9.0290403E-1,6.138956E-2,-2.6098957E-2,1.4123853E0,9.332076E-1,-1.0497298E0,-1.0926563E0,2.9513466E-1,-7.179151E-1,-3.4211776E-1,-3.0754772E-1,1.7421067E0,-4.336552E-1,-1.6621595E-2,8.4979093E-1,-2.0623654E-1,1.6738855E0,-0E0,-1.8791499E-2,1.0770208E0,1.2520143E-1,-5.5101746E-1,9.328222E-1,-0E0,-1.0365056E0,-0E0,-3.266594E-2,1.3041087E0,-6.696982E-2,2.055012E-2,7.6112054E-2,-3.9515622E-2,8.607239E-2,-6.8053314E-3,-0E0,-7.119924E-2,-6.72803E-2,2.33457E-2,-3.661098E-2,8.288755E-2,-3.869337E-2,1.3858418E-2,-2.2068517E-2,9.594559E-3,9.738672E-3,-4.3407965E-2,-0E0,9.636741E-2,4.6119988E-2,-2.481909E-2,-3.0733496E-3,5.1655926E-2,-6.0678757E-4,5.1063832E-2,-2.6768818E-2,2.6834024E-2,8.532181E-2,2.9155873E-3,-0E0,6.556223E-2,-2.0024138E-2,3.049921E-2,-0E0,-3.7411205E-2,5.1243912E-2,-0E0,9.6053565E-3,-2.5467379E-2,-0E0,-5.903829E-2,7.690459E-2,-0E0],"categories":[],"categories_nodes":[],"categories_segments":[],"categories_sizes":[],"default_left":[0,0,0,0,0,0,0,0,0,0,0,0,0,0,0,0,0,0,0,0,0,0,0,0,0,0,0,0,0,0,0,0,0,0,0,0,0,0,0,0,0,0,0,0,0,0,0,0,0,0,0,0,0,0,0,0,0,0,0,0,0,0,0,0,0,0,0,0,0,0,0,0,0,0,0,0,0,0,0,0,0,0,0,0,0,0,0,0,0,0,0,0,0,0,0,0,0,0,0,0,0,0,0],"id":5,"left_children":[1,3,5,7,9,11,13,15,17,19,21,23,25,27,29,31,33,35,37,39,41,43,45,47,-1,-1,49,51,53,55,57,59,-1,-1,61,63,65,67,69,71,73,75,77,79,81,83,85,87,-1,-1,89,91,93,95,97,99,-1,-1,101,-1,-1,-1,-1,-1,-1,-1,-1,-1,-1,-1,-1,-1,-1,-1,-1,-1,-1,-1,-1,-1,-1,-1,-1,-1,-1,-1,-1,-1,-1,-1,-1,-1,-1,-1,-1,-1,-1,-1,-1,-1,-1,-1,-1],"loss_changes":[1.0989609E2,7.34671E1,2.4654549E1,4.9615353E1,4.0548878E1,1.2522972E1,1.1675559E1,2.1411087E1,1.9190126E1,3.9434265E1,4.2303555E1,1.06884E0,9.418467E0,6.396902E0,1.0185427E1,1.0909758E1,1.7236359E1,3.5710438E1,1.1295694E1,1.3425697E1,1.5987579E1,1.3256167E1,1.263501E1,9.259567E-1,0E0,0E0,6.061548E0,1.2460682E0,3.6871948E0,2.878708E0,9.922435E0,6.098257E0,0E0,0E0,1.763208E1,2.7695782E1,5.6308575E0,9.848486E0,1.2246731E1,9.850372E0,1.5200909E1,2.2988226E0,3.496418E0,9.475735E0,1.1422462E1,1.0582371E1,3.3606129E0,3.9286804E-1,0E0,0E0,3.2467747E0,1.8093724E0,3.2565248E-1,4.078003E0,7.0293546E-1,1.7864132E0,0E0,0E0,8.947878E-1,0E0,0E0,0E0,0E0,0E0,0E0,0E0,0E0,0E0,0E0,0E0,0E0,0E0,0E0,0E0,0E0,0E0,0E0,0E0,0E0,0E0,0E0,0E0,0E0,0E0,0E0,0E0,0E0,0E0,0E0,0E0,0E0,0E0,0E0,0E0,0E0,0E0,0E0,0E0,0E0,0E0,0E0,0E0,0E0],"parents":[2147483647,0,0,1,1,2,2,3,3,4,4,5,5,6,6,7,7,8,8,9,9,10,10,11,11,12,12,13,13,14,14,15,15,16,16,17,17,18,18,19,19,20,20,21,21,22,22,23,23,26,26,27,27,28,28,29,29,30,30,31,31,34,34,35,35,36,36,37,37,38,38,39,39,40,40,41,41,42,42,43,43,44,44,45,45,46,46,47,47,50,50,51,51,52,52,53,53,54,54,55,55,58,58],"right_children":[2,4,6,8,10,12,14,16,18,20,22,24,26,28,30,32,34,36,38,40,42,44,46,48,-1,-1,50,52,54,56,58,60,-1,-1,62,64,66,68,70,72,74,76,78,80,82,84,86,88,-1,-1,90,92,94,96,98,100,-1,-1,102,-1,-1,-1,-1,-1,-1,-1,-1,-1,-1,-1,-1,-1,-1,-1,-1,-1,-1,-1,-1,-1,-1,-1,-1,-1,-1,-1,-1,-1,-1,-1,-1,-1,-1,-1,-1,-1,-1,-1,-1,-1,-1,-1,-1],"split_conditions":[8E-1,-1.111E-1,1.0784E0,1.4388E0,7.418E-1,4E0,6E0,8.003E-1,2.5447E0,6.98E-2,1.4E1,8.125E-1,-3.4E-3,-1.3198E0,1.0892E0,8.53E-1,-1.41941E1,9.921E-1,1E0,6.604E-1,8.159E-1,6.809E-1,5.5187E0,2.666E-1,-0E0,-4.4535942E-2,1.28E0,-3.9783E0,3.6756E0,1.334E0,8E0,-1.86E-2,6.138956E-2,-2.6098957E-2,1.2879E0,6.586E-1,3.447E-1,5.455E-1,5.4002E0,2.381E0,1E1,-5.9158E0,7.429E-1,1.06E0,6E-1,-5.507E-1,1.4302E0,2.0955E0,-0E0,-1.8791499E-2,1.2021E0,-9.9779E0,6.2E-3,1.5087E0,-3.754E-1,9.899E-1,-0E0,-3.266594E-2,1.555E1,-6.696982E-2,2.055012E-2,7.6112054E-2,-3.9515622E-2,8.607239E-2,-6.8053314E-3,-0E0,-7.119924E-2,-6.72803E-2,2.33457E-2,-3.661098E-2,8.288755E-2,-3.869337E-2,1.3858418E-2,-2.2068517E-2,9.594559E-3,9.738672E-3,-4.3407965E-2,-0E0,9.636741E-2,4.6119988E-2,-2.481909E-2,-3.0733496E-3,5.1655926E-2,-6.0678757E-4,5.1063832E-2,-2.6768818E-2,2.6834024E-2,8.532181E-2,2.9155873E-3,-0E0,6.556223E-2,-2.0024138E-2,3.049921E-2,-0E0,-3.7411205E-2,5.1243912E-2,-0E0,9.6053565E-3,-2.5467379E-2,-0E0,-5.903829E-2,7.690459E-2,-0E0],"split_indices":[28,76,5,5,71,27,27,16,17,76,27,43,9,2,24,30,7,30,25,37,5,37,19,32,0,0,17,2,12,37,27,9,0,0,30,38,38,28,19,5,27,7,37,17,28,0,37,9,0,0,16,2,15,37,32,12,0,0,22,0,0,0,0,0,0,0,0,0,0,0,0,0,0,0,0,0,0,0,0,0,0,0,0,0,0,0,0,0,0,0,0,0,0,0,0,0,0,0,0,0,0,0,0],"split_type":[0,0,0,0,0,0,0,0,0,0,0,0,0,0,0,0,0,0,0,0,0,0,0,0,0,0,0,0,0,0,0,0,0,0,0,0,0,0,0,0,0,0,0,0,0,0,0,0,0,0,0,0,0,0,0,0,0,0,0,0,0,0,0,0,0,0,0,0,0,0,0,0,0,0,0,0,0,0,0,0,0,0,0,0,0,0,0,0,0,0,0,0,0,0,0,0,0,0,0,0,0,0,0],"sum_hessian":[1.1758389E3,1.048053E3,1.2778596E2,1.4449442E2,9.0355853E2,6.2397205E1,6.538875E1,7.682548E1,6.766894E1,4.5734546E2,4.4621307E2,4.4384216E1,1.8012987E1,4.6408752E1,1.898E1,9.280592E0,6.754488E1,4.1303925E1,2.6365015E1,4.42641E2,1.4704445E1,3.709551E2,7.525797E1,4.315055E1,1.2336664E0,2.5783372E0,1.543465E1,7.24807E0,3.9160683E1,1.0799246E1,8.180754E0,7.054555E0,2.2260373E0,3.6751227E0,6.3869762E1,2.9699806E1,1.1604116E1,2.0144901E1,6.2201138E0,1.63146E2,2.7949503E2,4.1715407E0,1.0532905E1,1.10025276E2,2.6092984E2,6.368417E1,1.1573802E1,4.192069E1,1.2298628E0,1.8907552E0,1.3543896E1,4.319293E0,2.9287767E0,3.5493824E1,3.666859E0,9.59627E0,1.2029763E0,2.7985563E0,5.382197E0,5.852115E0,1.2024398E0,6.1562355E1,2.3074083E0,1.7284172E1,1.2415634E1,2.977726E0,8.62639E0,1.8003305E1,2.1415944E0,3.391684E0,2.8284297E0,1.5562277E2,7.523216E0,2.374145E2,4.2080505E1,1.6035371E0,2.5680034E0,1.169121E0,9.363784E0,3.55364E0,1.06471634E2,2.5205594E2,8.873888E0,9.754357E0,5.3929813E1,9.146824E0,2.426978E0,4.0430866E1,1.4898202E0,2.8434489E0,1.0700446E1,1.1660144E0,3.1532786E0,1.2163756E0,1.7124012E0,3.3114815E1,2.3790066E0,2.4478338E0,1.2190249E0,1.1497209E0,8.446548E0,3.9663348E0,1.4158623E0],"tree_param":{"num_deleted":"0","num_feature":"77","num_nodes":"103","size_leaf_vector":"1"}},{"base_weights":[-1.3788632E-2,-1.1447603E-1,8.1420475E-1,-2.4246547E-1,3.9111152E-1,1.0705056E0,2.8905654E-1,-4.517018E-1,6.236167E-3,9.142377E-1,1.601371E-1,1.3282137E0,5.479169E-1,-1.4950302E-1,9.2650974E-1,-6.035506E-1,-2.1336712E-1,1.1208742E0,-3.980949E-2,-3.553286E-1,1.1512485E0,6.268278E-2,1.515388E0,-4.055254E-3,1.3818785E0,-3.5014245E-1,9.762913E-1,-3.905723E-1,6.0858555E-2,1.394436E0,-0E0,-4.392098E-1,-7.6081693E-1,-2.792258E-1,4.5592326E-1,1.4695878E0,-4.627696E-3,-4.944336E-1,6.699725E-2,8.991213E-1,-6.493454E-2,-3.2782957E-1,1.3789952E0,-8.181392E-2,1.042E0,-0E0,8.758301E-2,-3.813069E-3,1.4380805E0,-8.359191E-1,1.4781523E-1,-1.18604945E-2,1.1778071E0,-0E0,-7.927471E-1,2.4309713E-2,8.430632E-2,5.153657E-2,-4.7599605E-1,1.810772E-2,-2.6052913E-2,1.3060733E-3,-4.146632E-2,-1.7363774E-3,-2.6944697E-2,4.512594E-2,-1.3555921E-2,8.973803E-2,4.947641E-4,-3.584615E-2,2.4122706E-2,1.981737E-2,-2.9753009E-2,-0E0,4.0238623E-2,-0E0,5.724431E-2,2.129535E-2,-5.24201E-2,7.4319765E-2,-3.064816E-2,-3.447846E-2,3.6803656E-3,-1.5112101E-2,8.5381724E-2,7.447868E-2,-0E0,-0E0,-5.2052885E-2,4.6607304E-2,-2.7128695E-2,6.954923E-2,-0E0,1.7842673E-2,-1.9925963E-2,-5.5161506E-2,9.586117E-4,2.4953505E-2,-3.274871E-3,-0E0,-4.0971324E-2],"categories":[],"categories_nodes":[],"categories_segments":[],"categories_sizes":[],"default_left":[0,0,0,0,0,0,0,0,0,0,0,0,0,0,0,0,0,0,0,0,0,0,0,0,0,0,0,0,0,0,0,0,0,0,0,0,0,0,0,0,0,0,0,0,0,0,0,0,0,0,0,0,0,0,0,0,0,0,0,0,0,0,0,0,0,0,0,0,0,0,0,0,0,0,0,0,0,0,0,0,0,0,0,0,0,0,0,0,0,0,0,0,0,0,0,0,0,0,0,0,0],"id":6,"left_children":[1,3,5,7,9,11,13,15,17,19,21,23,25,27,29,31,33,35,37,39,41,43,45,-1,47,49,51,53,-1,55,57,59,61,63,65,67,69,71,73,75,-1,77,79,81,83,-1,-1,-1,85,87,89,-1,91,93,95,97,-1,-1,99,-1,-1,-1,-1,-1,-1,-1,-1,-1,-1,-1,-1,-1,-1,-1,-1,-1,-1,-1,-1,-1,-1,-1,-1,-1,-1,-1,-1,-1,-1,-1,-1,-1,-1,-1,-1,-1,-1,-1,-1,-1,-1],"loss_changes":[9.6237144E1,6.709193E1,1.5154221E1,4.365098E1,2.3962292E1,8.486153E0,1.3116741E1,1.5451775E1,2.0533434E1,1.9950706E1,1.7757938E1,5.433853E0,1.2578501E1,8.14481E0,6.879936E0,5.538269E0,7.9040403E0,7.711025E0,1.8098518E1,1.3284159E1,1.9490501E1,2.0712633E1,2.5812054E0,0E0,5.72921E0,3.1650486E0,6.4656906E0,3.8813202E0,0E0,2.9896355E0,4.927807E0,9.483593E0,8.1223755E0,9.96283E0,5.806281E0,4.2617893E0,1.9954976E0,6.79908E0,1.3770495E1,7.070162E-1,0E0,5.0593576E0,1.1850365E1,1.2110335E1,1.8772455E1,0E0,0E0,0E0,3.8487167E0,8.5115385E-1,3.4064631E0,0E0,3.8653717E0,1.9037044E0,4.08784E0,6.239582E-1,0E0,0E0,1.6471059E0,0E0,0E0,0E0,0E0,0E0,0E0,0E0,0E0,0E0,0E0,0E0,0E0,0E0,0E0,0E0,0E0,0E0,0E0,0E0,0E0,0E0,0E0,0E0,0E0,0E0,0E0,0E0,0E0,0E0,0E0,0E0,0E0,0E0,0E0,0E0,0E0,0E0,0E0,0E0,0E0,0E0,0E0],"parents":[2147483647,0,0,1,1,2,2,3,3,4,4,5,5,6,6,7,7,8,8,9,9,10,10,11,11,12,12,13,13,14,14,15,15,16,16,17,17,18,18,19,19,20,20,21,21,22,22,24,24,25,25,26,26,27,27,29,29,30,30,31,31,32,32,33,33,34,34,35,35,36,36,37,37,38,38,39,39,41,41,42,42,43,43,44,44,48,48,49,49,50,50,52,52,53,53,54,54,55,55,58,58],"right_children":[2,4,6,8,10,12,14,16,18,20,22,24,26,28,30,32,34,36,38,40,42,44,46,-1,48,50,52,54,-1,56,58,60,62,64,66,68,70,72,74,76,-1,78,80,82,84,-1,-1,-1,86,88,90,-1,92,94,96,98,-1,-1,100,-1,-1,-1,-1,-1,-1,-1,-1,-1,-1,-1,-1,-1,-1,-1,-1,-1,-1,-1,-1,-1,-1,-1,-1,-1,-1,-1,-1,-1,-1,-1,-1,-1,-1,-1,-1,-1,-1,-1,-1,-1,-1],"split_conditions":[8E-1,-1.96E0,3.125E-1,1.6611E0,1.12516E1,2.3013E0,3.3466E0,1.708E0,1.9188E0,7.853E-1,1E0,5.395E-1,3.835E-1,2.5771E0,1.4801E0,1.15986E1,4.4305E0,1.2669E0,1.2906E0,7.473E-1,8.003E-1,6.86E0,7.813E-1,-4.055254E-3,1.7E-3,9.867E-1,8.381E-1,1.0784E0,6.0858555E-2,8.518E-1,-2.357E-1,7.188E-1,5.006E-1,-5.076E0,6.0095E0,9.941E-1,1.3193E0,4.292E1,6E-1,1.0995E0,-6.493454E-2,8.5E-3,3.7657E0,1.06E-2,1E0,-0E0,8.758301E-2,-3.813069E-3,6.3099E0,7.441E-1,4.2665E0,-1.18604945E-2,5.27E-2,1.546E-1,9.1787E0,9.564E-1,8.430632E-2,5.153657E-2,7.5231E0,1.810772E-2,-2.6052913E-2,1.3060733E-3,-4.146632E-2,-1.7363774E-3,-2.6944697E-2,4.512594E-2,-1.3555921E-2,8.973803E-2,4.947641E-4,-3.584615E-2,2.4122706E-2,1.981737E-2,-2.9753009E-2,-0E0,4.0238623E-2,-0E0,5.724431E-2,2.129535E-2,-5.24201E-2,7.4319765E-2,-3.064816E-2,-3.447846E-2,3.6803656E-3,-1.5112101E-2,8.5381724E-2,7.447868E-2,-0E0,-0E0,-5.2052885E-2,4.6607304E-2,-2.7128695E-2,6.954923E-2,-0E0,1.7842673E-2,-1.9925963E-2,-5.5161506E-2,9.586117E-4,2.4953505E-2,-3.274871E-3,-0E0,-4.0971324E-2],"split_indices":[28,41,74,71,14,5,18,16,18,11,70,12,39,24,12,14,2,16,16,12,16,42,12,0,40,3,11,5,0,11,32,43,16,2,18,3,24,8,28,16,0,15,5,15,62,0,0,0,18,24,16,0,15,40,71,3,0,0,34,0,0,0,0,0,0,0,0,0,0,0,0,0,0,0,0,0,0,0,0,0,0,0,0,0,0,0,0,0,0,0,0,0,0,0,0,0,0,0,0,0,0],"split_type":[0,0,0,0,0,0,0,0,0,0,0,0,0,0,0,0,0,0,0,0,0,0,0,0,0,0,0,0,0,0,0,0,0,0,0,0,0,0,0,0,0,0,0,0,0,0,0,0,0,0,0,0,0,0,0,0,0,0,0,0,0,0,0,0,0,0,0,0,0,0,0,0,0,0,0,0,0,0,0,0,0,0,0,0,0,0,0,0,0,0,0,0,0,0,0,0,0,0,0,0,0],"sum_hessian":[1.1606337E3,1.0366431E3,1.23990585E2,8.292236E2,2.0741951E2,8.134641E1,4.2644173E1,4.5208362E2,3.7713995E2,6.129864E1,1.4612088E2,5.2166164E1,2.9180246E1,2.4787453E1,1.785672E1,2.7264606E2,1.7943756E2,1.4897107E1,3.6224283E2,8.9010515E0,5.239759E1,1.3798283E2,8.138042E0,1.2112544E0,5.0954906E1,8.728896E0,2.0451351E1,2.2299871E1,2.4875808E0,1.0862948E1,6.993772E0,1.3828836E2,1.3435771E2,1.6525343E2,1.4184137E1,1.1818242E1,3.0788653E0,7.00039E1,2.9223895E2,3.3857105E0,5.515341E0,6.347046E0,4.6050545E1,1.201502E2,1.7832632E1,1.4576625E0,6.6803794E0,1.2174985E0,4.973741E1,5.091476E0,3.6374204E0,2.1805923E0,1.8270758E1,1.14681225E1,1.0831749E1,2.6986246E0,8.164324E0,2.4577017E0,4.536071E0,1.1365765E1,1.2692259E2,9.640756E0,1.2471696E2,8.7680275E1,7.757316E1,9.489289E0,4.6948485E0,8.917162E0,2.9010804E0,1.8924973E0,1.186368E0,5.798352E0,6.420555E1,2.6994467E2,2.2294273E1,1.1414139E0,2.2442966E0,2.6237183E0,3.7233279E0,4.441182E1,1.6387231E0,2.5079052E1,9.507115E1,5.5891023E0,1.2243529E1,4.802474E1,1.7126718E0,1.3787687E0,3.7127073E0,2.2170165E0,1.420404E0,1.4814415E1,3.4563425E0,6.4752584E0,4.9928637E0,8.466836E0,2.3649135E0,1.4756302E0,1.2229944E0,1.2149988E0,3.3210716E0],"tree_param":{"num_deleted":"0","num_feature":"77","num_nodes":"101","size_leaf_vector":"1"}},{"base_weights":[2.368941E-2,-9.5542796E-2,5.8989275E-1,-2.217832E-1,3.656156E-1,1.0407711E0,1.4451256E-1,-3.12579E-1,3.1412068E-1,4.6434182E-1,-9.095E-1,1.3552461E0,5.056208E-1,-7.7506596E-1,3.676094E-1,-5.938052E-1,-1.4784527E-1,8.9274305E-1,-1.5570001E-1,6.380481E-1,-4.542767E-1,3.3417854E-2,-6.2449213E-2,1.3872387E0,-0E0,-0E0,7.277876E-1,-1.0088111E0,3.8111992E-2,-1.8808915E-1,6.6788644E-1,-6.3552064E-1,7.746665E-1,-4.1790986E-1,-4.1617695E-2,-0E0,1.1600399E0,-5.578712E-1,4.1267917E-1,7.5391084E-1,-3.3399162E-1,-0E0,-8.1643254E-1,1.4305571E0,-0E0,-2.9277828E-1,5.894684E-1,-0E0,8.812213E-1,1.6410677E-2,-1.193315E0,9.378147E-2,-8.7865925E-1,1.332307E0,1.1316818E-1,-1.1158062E-2,-3.729077E-2,6.382473E-2,-1.0534177E-3,3.7918754E-2,-2.44733E-2,8.079269E-3,-1.2465733E-2,5.213928E-2,-3.043723E-2,-2.2752157E-3,6.986456E-2,-4.0310707E-2,1.0827108E-2,-2.9143779E-2,4.3276887E-2,1.6010113E-2,5.31707E-2,2.7582437E-2,-5.210484E-2,1.9412568E-2,-3.2216106E-2,-0E0,-4.9605705E-2,7.284721E-2,-0E0,1.8796986E-2,-3.355957E-2,4.39817E-2,-0E0,2.2114642E-2,-3.6315244E-2,5.3759094E-2,-0E0,-6.423121E-2,-0E0,-4.221581E-2,3.0146753E-2,-4.971083E-2,-0E0,-0E0,7.709416E-2,-4.342098E-2,1.5965601E-2],"categories":[],"categories_nodes":[],"categories_segments":[],"categories_sizes":[],"default_left":[0,0,0,0,0,0,0,0,0,0,0,0,0,0,0,0,0,0,0,0,0,0,0,0,0,0,0,0,0,0,0,0,0,0,0,0,0,0,0,0,0,0,0,0,0,0,0,0,0,0,0,0,0,0,0,0,0,0,0,0,0,0,0,0,0,0,0,0,0,0,0,0,0,0,0,0,0,0,0,0,0,0,0,0,0,0,0,0,0,0,0,0,0,0,0,0,0,0,0],"id":7,"left_children":[1,3,5,7,9,11,13,15,17,19,21,23,25,27,29,31,33,35,37,39,41,-1,-1,43,-1,45,47,49,-1,51,53,55,57,59,61,63,65,67,69,71,73,75,77,79,-1,81,83,85,87,-1,89,91,93,95,97,-1,-1,-1,-1,-1,-1,-1,-1,-1,-1,-1,-1,-1,-1,-1,-1,-1,-1,-1,-1,-1,-1,-1,-1,-1,-1,-1,-1,-1,-1,-1,-1,-1,-1,-1,-1,-1,-1,-1,-1,-1,-1,-1,-1],"loss_changes":[8.088583E1,5.7128475E1,4.055304E1,3.7737328E1,2.6388746E1,1.46837845E1,2.1873175E1,2.9913498E1,3.1045479E1,3.1767887E1,9.282526E0,3.1513748E0,4.7127275E0,8.338585E0,1.5261991E1,1.419973E1,1.1630875E1,1.1981556E1,1.4352392E1,1.9396515E1,4.345948E0,0E0,0E0,3.144165E0,0E0,2.38163E0,3.6773052E0,5.8660107E0,0E0,6.7895203E0,1.9932018E1,9.627113E0,4.0442934E0,9.897694E0,1.3070937E1,8.830639E0,1.2572842E1,7.930847E0,1.2004906E1,1.8381432E1,1.202794E1,4.427518E0,3.0868769E0,9.2116547E-1,0E0,2.995471E0,9.5084476E-1,2.1930385E0,4.404419E0,0E0,1.9524803E0,1.0527858E1,7.815261E-1,8.341194E0,6.556738E0,0E0,0E0,0E0,0E0,0E0,0E0,0E0,0E0,0E0,0E0,0E0,0E0,0E0,0E0,0E0,0E0,0E0,0E0,0E0,0E0,0E0,0E0,0E0,0E0,0E0,0E0,0E0,0E0,0E0,0E0,0E0,0E0,0E0,0E0,0E0,0E0,0E0,0E0,0E0,0E0,0E0,0E0,0E0,0E0],"parents":[2147483647,0,0,1,1,2,2,3,3,4,4,5,5,6,6,7,7,8,8,9,9,10,10,11,11,12,12,13,13,14,14,15,15,16,16,17,17,18,18,19,19,20,20,23,23,25,25,26,26,27,27,29,29,30,30,31,31,32,32,33,33,34,34,35,35,36,36,37,37,38,38,39,39,40,40,41,41,42,42,43,43,45,45,46,46,47,47,48,48,50,50,51,51,52,52,53,53,54,54],"right_children":[2,4,6,8,10,12,14,16,18,20,22,24,26,28,30,32,34,36,38,40,42,-1,-1,44,-1,46,48,50,-1,52,54,56,58,60,62,64,66,68,70,72,74,76,78,80,-1,82,84,86,88,-1,90,92,94,96,98,-1,-1,-1,-1,-1,-1,-1,-1,-1,-1,-1,-1,-1,-1,-1,-1,-1,-1,-1,-1,-1,-1,-1,-1,-1,-1,-1,-1,-1,-1,-1,-1,-1,-1,-1,-1,-1,-1,-1,-1,-1,-1,-1,-1],"split_conditions":[6E-1,-1.96E0,4E0,1E1,6.4474E0,1.8458E0,-1.1194E0,-1.4623E0,3E0,2.5E-1,-2.0725E0,3.64214E1,1.0396E0,4.0995E0,1.17081E1,6.831E0,6.604E-1,2.2E1,8.333E-1,6E0,1E0,3.3417854E-2,-6.2449213E-2,5E0,-0E0,1.66436E1,1.57E-1,5.293E-1,3.8111992E-2,1.0202E0,9.807E-1,-1.01828E1,4.4695E0,1.0764E0,1E0,7.93E-2,-2.3304E0,2.8378E0,-8.2419E0,-6.2712E0,3.342E-1,1.2084E0,-1.9751E0,1.5227E0,-0E0,2.8686E0,6.573E1,5.0989E0,1.6382E0,1.6410677E-2,1.3753E1,1.5769E0,3.6234E0,9.194E-1,3.405E-1,-1.1158062E-2,-3.729077E-2,6.382473E-2,-1.0534177E-3,3.7918754E-2,-2.44733E-2,8.079269E-3,-1.2465733E-2,5.213928E-2,-3.043723E-2,-2.2752157E-3,6.986456E-2,-4.0310707E-2,1.0827108E-2,-2.9143779E-2,4.3276887E-2,1.6010113E-2,5.31707E-2,2.7582437E-2,-5.210484E-2,1.9412568E-2,-3.2216106E-2,-0E0,-4.9605705E-2,7.284721E-2,-0E0,1.8796986E-2,-3.355957E-2,4.39817E-2,-0E0,2.2114642E-2,-3.6315244E-2,5.3759094E-2,-0E0,-6.423121E-2,-0E0,-4.221581E-2,3.0146753E-2,-4.971083E-2,-0E0,-0E0,7.709416E-2,-4.342098E-2,1.5965601E-2],"split_indices":[28,41,27,27,19,5,0,71,26,75,5,35,11,16,14,2,37,27,5,26,26,0,0,26,0,71,33,11,0,12,12,7,72,72,26,0,36,2,35,35,39,16,5,37,0,19,8,0,10,0,14,19,18,16,0,0,0,0,0,0,0,0,0,0,0,0,0,0,0,0,0,0,0,0,0,0,0,0,0,0,0,0,0,0,0,0,0,0,0,0,0,0,0,0,0,0,0,0,0],"split_type":[0,0,0,0,0,0,0,0,0,0,0,0,0,0,0,0,0,0,0,0,0,0,0,0,0,0,0,0,0,0,0,0,0,0,0,0,0,0,0,0,0,0,0,0,0,0,0,0,0,0,0,0,0,0,0,0,0,0,0,0,0,0,0,0,0,0,0,0,0,0,0,0,0,0,0,0,0,0,0,0,0,0,0,0,0,0,0,0,0,0,0,0,0,0,0,0,0,0,0],"sum_hessian":[1.1889794E3,9.8138293E2,2.0759642E2,7.725796E2,2.0880331E2,1.0138139E2,1.0621503E2,6.626009E2,1.0997875E2,1.9511644E2,1.3686869E1,6.1714493E1,3.96669E1,1.9379316E1,8.683571E1,2.415545E2,4.2104636E2,4.9833294E1,6.014546E1,1.6526051E2,2.9855934E1,1.7303145E0,1.1956554E1,6.049274E1,1.2217526E0,1.2141252E1,2.752565E1,1.7684658E1,1.6946588E0,2.9424852E1,5.741086E1,2.3563785E2,5.91666E0,1.1537591E2,3.0567044E2,1.1823497E1,3.8009796E1,3.6263893E1,2.3881565E1,1.487798E2,1.6480717E1,1.4783006E1,1.5072929E1,5.8361393E1,2.1313481E0,8.67349E0,3.467762E0,4.333262E0,2.3192387E1,1.3927959E0,1.6291862E1,2.0481157E1,8.943694E0,2.4664345E1,3.2746513E1,5.2277534E1,1.8336032E2,4.028578E0,1.888082E0,5.2643194E0,1.10111595E2,1.5218527E2,1.5348517E2,4.1728563E0,7.650641E0,5.690081E0,3.2319714E1,2.8405046E1,7.8588448E0,6.686597E0,1.719497E1,6.415064E1,8.462915E1,6.7931395E0,9.687576E0,8.606088E0,6.1769176E0,2.052187E0,1.3020742E1,5.6664616E1,1.6967766E0,2.1818042E0,6.491686E0,2.235221E0,1.2325411E0,2.4585438E0,1.8747184E0,1.9061174E1,4.131212E0,1.5104203E1,1.1876593E0,6.282871E0,1.4198287E1,7.55717E0,1.3865243E0,2.9940355E0,2.167031E1,4.2839775E0,2.8462534E1],"tree_param":{"num_deleted":"0","num_feature":"77","num_nodes":"99","size_leaf_vector":"1"}},{"base_weights":[1.4704036E-2,-8.203798E-2,5.395547E-1,-3.312236E-1,1.4401944E-1,7.808674E-1,-1.1820313E-1,-3.7750316E-1,3.743732E-1,-1.8975366E-2,4.1156968E-1,1.0738174E0,-1.305567E-1,-1.119479E0,2.0240898E-1,-0E0,-4.6808875E-1,-3.5412154E-1,7.927145E-1,-1.1805154E-1,5.6281704E-1,-3.066523E-1,4.663814E-1,1.2160503E0,-3.475207E-2,-4.845852E-1,6.2471867E-1,6.515055E-4,-6.614315E-2,8.5803986E-2,-1.1070086E-1,2.765261E-1,-4.6814618E-1,-6.9894546E-1,-3.1353912E-1,-8.0471164E-1,3.249118E-1,1.0614473E0,-2.4880117E-2,-8.328911E-1,-7.872452E-2,6.458652E-2,1.2642549E0,-9.1018987E-1,3.6045963E-1,5.431595E-1,-1.841239E-1,-5.150419E-2,1.3631811E0,-5.7073385E-2,6.0555834E-1,4.881006E-2,-6.693191E-1,1.1563251E0,-3.1801277E-1,-6.0966767E-2,2.0575799E-1,-1.1428477E-3,3.896682E-2,-3.0194355E-2,1.550235E-2,-1.0440077E-2,-4.153294E-2,-3.0894745E-3,-2.5245974E-2,-0E0,-4.902343E-2,-0E0,3.828632E-2,7.1942054E-2,-0E0,-0E0,-5.0231736E-2,-9.490467E-3,6.607967E-3,2.766115E-2,-1.6766466E-2,7.504409E-2,-5.220823E-3,-0E0,-5.383035E-2,4.688625E-2,-2.3962231E-3,3.1421218E-2,-0E0,-3.7787493E-2,4.029039E-2,6.086413E-2,-4.6699967E-2,7.959071E-2,1.2066337E-2,6.805432E-2,-1.1169211E-2,-4.4469755E-2,2.1729564E-2,8.146288E-2,-3.9792294E-3,-0E0,-2.6931051E-2,4.0487953E-2,-4.3681137E-2],"categories":[],"categories_nodes":[],"categories_segments":[],"categories_sizes":[],"default_left":[0,0,0,0,0,0,0,0,0,0,0,0,0,0,0,0,0,0,0,0,0,0,0,0,0,0,0,0,0,0,0,0,0,0,0,0,0,0,0,0,0,0,0,0,0,0,0,0,0,0,0,0,0,0,0,0,0,0,0,0,0,0,0,0,0,0,0,0,0,0,0,0,0,0,0,0,0,0,0,0,0,0,0,0,0,0,0,0,0,0,0,0,0,0,0,0,0,0,0,0,0],"id":8,"left_children":[1,3,5,7,9,11,13,15,17,19,21,23,25,27,29,31,33,35,37,39,41,43,45,47,49,51,53,-1,-1,-1,55,57,59,61,63,65,67,69,-1,71,73,75,77,79,81,83,85,87,89,-1,91,-1,93,95,97,-1,99,-1,-1,-1,-1,-1,-1,-1,-1,-1,-1,-1,-1,-1,-1,-1,-1,-1,-1,-1,-1,-1,-1,-1,-1,-1,-1,-1,-1,-1,-1,-1,-1,-1,-1,-1,-1,-1,-1,-1,-1,-1,-1,-1,-1],"loss_changes":[5.9424404E1,5.538857E1,2.9698551E1,1.5431377E1,2.2727222E1,3.703543E1,1.6777227E1,1.4728695E1,9.248607E0,1.7881731E1,8.0261E0,1.7438385E1,8.936566E0,4.257208E0,1.932101E1,1.16679535E1,1.1403999E1,3.8095784E0,7.66595E0,6.697071E0,1.424662E1,6.2007113E0,9.647259E0,1.8534058E1,9.636358E0,6.7706842E0,6.221483E0,0E0,0E0,0E0,1.2151705E1,9.042747E0,4.0804553E0,7.735367E0,9.835073E0,1.1438231E0,1.1657647E0,6.0057945E0,0E0,2.6385593E0,6.2011113E0,5.891107E0,7.2917194E0,1.2907043E0,2.3984392E0,7.4496956E0,1.1193375E1,1.185121E1,1.9109726E1,0E0,6.200511E0,0E0,6.26731E0,5.942177E0,3.7039205E-1,0E0,1.6482626E1,0E0,0E0,0E0,0E0,0E0,0E0,0E0,0E0,0E0,0E0,0E0,0E0,0E0,0E0,0E0,0E0,0E0,0E0,0E0,0E0,0E0,0E0,0E0,0E0,0E0,0E0,0E0,0E0,0E0,0E0,0E0,0E0,0E0,0E0,0E0,0E0,0E0,0E0,0E0,0E0,0E0,0E0,0E0,0E0],"parents":[2147483647,0,0,1,1,2,2,3,3,4,4,5,5,6,6,7,7,8,8,9,9,10,10,11,11,12,12,13,13,14,14,15,15,16,16,17,17,18,18,19,19,20,20,21,21,22,22,23,23,24,24,25,25,26,26,30,30,31,31,32,32,33,33,34,34,35,35,36,36,37,37,39,39,40,40,41,41,42,42,43,43,44,44,45,45,46,46,47,47,48,48,50,50,52,52,53,53,54,54,56,56],"right_children":[2,4,6,8,10,12,14,16,18,20,22,24,26,28,30,32,34,36,38,40,42,44,46,48,50,52,54,-1,-1,-1,56,58,60,62,64,66,68,70,-1,72,74,76,78,80,82,84,86,88,90,-1,92,-1,94,96,98,-1,100,-1,-1,-1,-1,-1,-1,-1,-1,-1,-1,-1,-1,-1,-1,-1,-1,-1,-1,-1,-1,-1,-1,-1,-1,-1,-1,-1,-1,-1,-1,-1,-1,-1,-1,-1,-1,-1,-1,-1,-1,-1,-1,-1,-1],"split_conditions":[-1.25E0,9.881E-1,2.4461E0,2.8891E0,2E0,9.38E-2,-5.56E0,-1.704E0,1.2387E1,4.0482E0,1.57E-1,6E0,4.74E-2,2.493E1,-3.6686E0,-5.6394E0,3.51E-1,5.335E1,9.215E-1,5.752E-1,1.3378E0,1.3333E0,6E0,2.9E-3,1.1483E0,-2.99E0,1.1088E0,6.515055E-4,-6.614315E-2,8.5803986E-2,-1.9871E0,-5.2743E0,4.595E-1,1.08793E1,9.444E-1,5.752E-1,9.173E-1,5.7973E0,-2.4880117E-2,2.5381E0,8.8939E0,6.303E-1,6.8077E0,9.756E-1,7.68E-1,1.1292E0,-6.4E0,-2.6432E0,1.0487E0,-5.7073385E-2,-6.5639E0,4.881006E-2,6.469E-1,3E0,-2.6724E0,-6.0966767E-2,6.4474E0,-1.1428477E-3,3.896682E-2,-3.0194355E-2,1.550235E-2,-1.0440077E-2,-4.153294E-2,-3.0894745E-3,-2.5245974E-2,-0E0,-4.902343E-2,-0E0,3.828632E-2,7.1942054E-2,-0E0,-0E0,-5.0231736E-2,-9.490467E-3,6.607967E-3,2.766115E-2,-1.6766466E-2,7.504409E-2,-5.220823E-3,-0E0,-5.383035E-2,4.688625E-2,-2.3962231E-3,3.1421218E-2,-0E0,-3.7787493E-2,4.029039E-2,6.086413E-2,-4.6699967E-2,7.959071E-2,1.2066337E-2,6.805432E-2,-1.1169211E-2,-4.4469755E-2,2.1729564E-2,8.146288E-2,-3.9792294E-3,-0E0,-2.6931051E-2,4.0487953E-2,-4.3681137E-2],"split_indices":[41,71,72,35,26,75,2,36,14,36,39,26,15,8,7,35,39,8,38,12,24,21,26,15,17,69,11,0,0,0,36,71,39,14,12,12,12,18,0,71,71,38,18,7,38,10,41,6,30,0,7,0,10,26,2,0,19,0,0,0,0,0,0,0,0,0,0,0,0,0,0,0,0,0,0,0,0,0,0,0,0,0,0,0,0,0,0,0,0,0,0,0,0,0,0,0,0,0,0,0,0],"split_type":[0,0,0,0,0,0,0,0,0,0,0,0,0,0,0,0,0,0,0,0,0,0,0,0,0,0,0,0,0,0,0,0,0,0,0,0,0,0,0,0,0,0,0,0,0,0,0,0,0,0,0,0,0,0,0,0,0,0,0,0,0,0,0,0,0,0,0,0,0,0,0,0,0,0,0,0,0,0,0,0,0,0,0,0,0,0,0,0,0,0,0,0,0,0,0,0,0,0,0,0,0],"sum_hessian":[1.1594626E3,9.781125E2,1.8135017E2,4.671387E2,5.109738E2,1.3365068E2,4.7699486E1,4.4015173E2,2.698698E1,3.1578516E2,1.9518863E2,1.0183717E2,3.1813505E1,1.1721241E1,3.5978245E1,8.700241E1,3.5314932E2,9.028308E0,1.7958672E1,2.7198367E2,4.3801464E1,1.22204075E1,1.8296823E2,9.09705E1,1.0866682E1,2.2805876E1,9.007629E0,1.1784377E0,1.0542803E1,5.946074E0,3.0032171E1,5.39279E1,3.3074512E1,1.3760724E2,2.1554207E2,6.201043E0,2.8272645E0,1.56513605E1,2.307312E0,1.1804743E1,2.6017896E2,2.7082508E1,1.6718956E1,7.0116124E0,5.2087946E0,1.6517516E2,1.7793066E1,8.821891E0,8.2148605E1,4.268335E0,6.598347E0,1.471602E0,2.1334274E1,6.293117E0,2.7145119E0,6.7371516E0,2.329502E1,3.3153423E1,2.0774475E1,2.9447052E1,3.6274588E0,3.1301754E1,1.0630549E2,9.591698E1,1.1962509E2,1.160448E0,5.040595E0,1.1499639E0,1.6773007E0,1.09629135E1,4.688446E0,1.3894943E0,1.0415249E1,1.7358401E2,8.6594925E1,1.314207E1,1.3940438E1,1.47951E1,1.9238565E0,1.1718155E0,5.839797E0,2.6356711E0,2.5731235E0,1.4200484E2,2.3170328E1,1.20700655E1,5.7230015E0,2.9984393E0,5.8234515E0,6.715266E1,1.4995952E1,3.7473128E0,2.8510342E0,1.870536E1,2.6289148E0,4.9064665E0,1.3866504E0,1.142929E0,1.571583E0,1.5690925E1,7.604094E0],"tree_param":{"num_deleted":"0","num_feature":"77","num_nodes":"101","size_leaf_vector":"1"}},{"base_weights":[-5.6369044E-3,-9.199278E-2,6.857669E-1,2.9497245E-1,-1.8010584E-1,1.0762991E0,2.91044E-1,4.939353E-1,-3.98963E-1,-3.0136138E-1,1.1235236E-1,1.3316095E0,3.320137E-1,-0E0,6.8989795E-1,8.625813E-1,-5.2660294E-2,-7.10533E-1,-3.1289984E-3,-3.7708813E-1,1.0521525E-1,4.7614762E-1,-6.2674694E-2,1.4022759E0,-0E0,-3.6607686E-2,5.739642E-1,-1.15488544E-1,5.40057E-2,9.3311435E-1,-0E0,-1.735335E-1,1.0393275E0,4.9263376E-1,-7.7707464E-1,-2.0376188E-1,-1.166104E0,5.3205645E-1,-3.3885688E-1,-2.1440229E-1,-5.6224847E-1,4.405222E-1,-1.4439777E-1,-2.380973E-1,8.2642746E-1,-2.0039639E-1,3.6805573E-1,3.9948158E-2,1.4609451E0,-0E0,1.0299224E-2,1.2395589E0,-1.2047115E-1,-3.4858382E-1,4.2745548E-1,-0E0,1.1055027E0,-3.5340738E-2,4.4885316E-1,7.2646E-2,-6.875034E-2,3.0067503E-2,8.12679E-2,-6.161275E-2,4.341059E-2,1.803109E-2,-5.560186E-2,-4.4858243E-2,1.2780289E-2,-0E0,-6.177592E-2,-4.7943923E-3,5.7870865E-2,-4.01514E-2,2.4542988E-3,-2.1716751E-2,2.6723684E-3,4.664714E-2,-2.9187266E-2,-8.171217E-3,4.4136465E-2,-2.5852894E-2,1.4242697E-2,1.1928979E-3,-4.2456057E-2,5.8328252E-2,8.878524E-3,-3.2306235E-2,2.470619E-4,4.6123102E-2,-2.7905573E-4,-7.3752366E-3,3.268718E-2,7.46787E-2,5.1793884E-3,7.135503E-2,-0E0,-2.5090486E-2,1.5373479E-2,6.2626526E-3,-3.0996293E-2,-9.532168E-3,4.046281E-2,3.0488E-2,-1.9990651E-2,6.250535E-2,-0E0,5.6577902E-2,-7.909517E-3],"categories":[],"categories_nodes":[],"categories_segments":[],"categories_sizes":[],"default_left":[0,0,0,0,0,0,0,0,0,0,0,0,0,0,0,0,0,0,0,0,0,0,0,0,0,0,0,0,0,0,0,0,0,0,0,0,0,0,0,0,0,0,0,0,0,0,0,0,0,0,0,0,0,0,0,0,0,0,0,0,0,0,0,0,0,0,0,0,0,0,0,0,0,0,0,0,0,0,0,0,0,0,0,0,0,0,0,0,0,0,0,0,0,0,0,0,0,0,0,0,0,0,0,0,0,0,0,0,0],"id":9,"left_children":[1,3,5,7,9,11,13,15,17,19,21,23,25,27,29,31,33,35,37,39,41,43,45,47,49,-1,51,53,-1,55,57,59,61,63,65,67,69,71,73,75,77,79,81,83,85,87,89,91,93,-1,-1,95,97,99,101,103,105,-1,107,-1,-1,-1,-1,-1,-1,-1,-1,-1,-1,-1,-1,-1,-1,-1,-1,-1,-1,-1,-1,-1,-1,-1,-1,-1,-1,-1,-1,-1,-1,-1,-1,-1,-1,-1,-1,-1,-1,-1,-1,-1,-1,-1,-1,-1,-1,-1,-1,-1,-1],"loss_changes":[6.8824265E1,3.522106E1,1.8020962E1,2.6551987E1,3.0209318E1,9.7897415E0,7.8235736E0,3.0955921E1,4.4410844E0,1.8798481E1,1.6116392E1,3.410843E0,4.9793644E0,4.7947693E0,5.545659E0,1.7594353E1,2.437584E1,3.4669533E0,3.7306252E0,1.4419113E1,8.142267E0,2.1282387E1,9.706939E0,1.8427963E0,9.504136E-2,0E0,8.781073E0,4.663023E0,0E0,2.6306725E0,2.8968673E0,2.771605E1,1.6857735E1,2.2775684E1,1.1423281E1,4.902141E0,4.323864E-2,4.0283513E0,3.4156318E0,1.6612707E1,7.7266617E0,1.1983651E1,8.753206E0,5.1344023E0,1.0837318E1,1.2322563E1,8.922316E0,1.0041311E0,2.3002625E-2,0E0,0E0,1.5738773E0,1.6754739E0,4.073303E0,3.1472192E0,1.656981E0,3.295992E0,0E0,2.9763205E0,0E0,0E0,0E0,0E0,0E0,0E0,0E0,0E0,0E0,0E0,0E0,0E0,0E0,0E0,0E0,0E0,0E0,0E0,0E0,0E0,0E0,0E0,0E0,0E0,0E0,0E0,0E0,0E0,0E0,0E0,0E0,0E0,0E0,0E0,0E0,0E0,0E0,0E0,0E0,0E0,0E0,0E0,0E0,0E0,0E0,0E0,0E0,0E0,0E0,0E0],"parents":[2147483647,0,0,1,1,2,2,3,3,4,4,5,5,6,6,7,7,8,8,9,9,10,10,11,11,12,12,13,13,14,14,15,15,16,16,17,17,18,18,19,19,20,20,21,21,22,22,23,23,24,24,26,26,27,27,29,29,30,30,31,31,32,32,33,33,34,34,35,35,36,36,37,37,38,38,39,39,40,40,41,41,42,42,43,43,44,44,45,45,46,46,47,47,48,48,51,51,52,52,53,53,54,54,55,55,56,56,58,58],"right_children":[2,4,6,8,10,12,14,16,18,20,22,24,26,28,30,32,34,36,38,40,42,44,46,48,50,-1,52,54,-1,56,58,60,62,64,66,68,70,72,74,76,78,80,82,84,86,88,90,92,94,-1,-1,96,98,100,102,104,106,-1,108,-1,-1,-1,-1,-1,-1,-1,-1,-1,-1,-1,-1,-1,-1,-1,-1,-1,-1,-1,-1,-1,-1,-1,-1,-1,-1,-1,-1,-1,-1,-1,-1,-1,-1,-1,-1,-1,-1,-1,-1,-1,-1,-1,-1,-1,-1,-1,-1,-1,-1],"split_conditions":[8E-1,3.125E-1,1.0593E0,9.38E-2,5.2466E0,4E0,1.937E-1,1.6173E0,3.787E-1,1.0982E0,1.667E1,1.44754E1,-3.4E-3,3E0,5E0,-1.14011E1,2.3457E0,-2.572E0,4.332E-1,4.591E-1,1.0804E0,7.116E-1,1.38586E1,-9.8237E0,1.1176E0,-3.6607686E-2,9.59E-1,1.6686E0,5.40057E-2,3.753E-1,3.9416E0,-6.8568E0,1.1482E0,2.5E-3,8.622E-1,1.05E-2,9.132E-1,1.25E-1,1.0424E0,2.66E-1,9.38E-2,9.84E-2,4.5145E0,1.4901E0,9.342E-1,4.673E-1,4.81E-2,1.22232E1,8.075E-1,-0E0,1.0299224E-2,3.45E-2,3.4905E0,5.125E-1,6.051E-1,2.4162E0,1.2861E0,-3.5340738E-2,1.0714E0,7.2646E-2,-6.875034E-2,3.0067503E-2,8.12679E-2,-6.161275E-2,4.341059E-2,1.803109E-2,-5.560186E-2,-4.4858243E-2,1.2780289E-2,-0E0,-6.177592E-2,-4.7943923E-3,5.7870865E-2,-4.01514E-2,2.4542988E-3,-2.1716751E-2,2.6723684E-3,4.664714E-2,-2.9187266E-2,-8.171217E-3,4.4136465E-2,-2.5852894E-2,1.4242697E-2,1.1928979E-3,-4.2456057E-2,5.8328252E-2,8.878524E-3,-3.2306235E-2,2.470619E-4,4.6123102E-2,-2.7905573E-4,-7.3752366E-3,3.268718E-2,7.46787E-2,5.1793884E-3,7.135503E-2,-0E0,-2.5090486E-2,1.5373479E-2,6.2626526E-3,-3.0996293E-2,-9.532168E-3,4.046281E-2,3.0488E-2,-1.9990651E-2,6.250535E-2,-0E0,5.6577902E-2,-7.909517E-3],"split_indices":[28,43,5,75,71,27,9,5,39,4,22,14,9,26,27,7,17,35,39,38,12,37,14,7,24,0,3,24,0,39,5,1,5,15,3,15,3,43,71,5,74,9,19,5,10,38,15,14,30,0,0,15,19,38,38,12,9,0,9,0,0,0,0,0,0,0,0,0,0,0,0,0,0,0,0,0,0,0,0,0,0,0,0,0,0,0,0,0,0,0,0,0,0,0,0,0,0,0,0,0,0,0,0,0,0,0,0,0,0],"split_type":[0,0,0,0,0,0,0,0,0,0,0,0,0,0,0,0,0,0,0,0,0,0,0,0,0,0,0,0,0,0,0,0,0,0,0,0,0,0,0,0,0,0,0,0,0,0,0,0,0,0,0,0,0,0,0,0,0,0,0,0,0,0,0,0,0,0,0,0,0,0,0,0,0,0,0,0,0,0,0,0,0,0,0,0,0,0,0,0,0,0,0,0,0,0,0,0,0,0,0,0,0,0,0,0,0,0,0,0,0],"sum_hessian":[1.1605925E3,1.0337866E3,1.26805984E2,1.8919669E2,8.445899E2,6.159992E1,6.520606E1,1.483823E2,4.08144E1,5.9944434E2,2.451456E2,4.4278492E1,1.7321426E1,3.7985867E1,2.7220198E1,8.936341E1,5.9018875E1,2.0979567E1,1.9834835E1,5.074597E2,9.198462E1,8.092833E1,1.6421727E2,4.1564526E1,2.7139666E0,2.0677493E0,1.5253677E1,3.5290886E1,2.6949809E0,2.0795418E1,6.4247804E0,1.2200787E1,7.716263E1,3.3067356E1,2.5951519E1,1.1655952E1,9.323613E0,6.2724705E0,1.3562364E1,2.7414694E2,2.3331276E2,4.063744E1,5.134718E1,2.579531E1,5.5133022E1,1.265959E2,3.762137E1,2.489222E0,3.9075302E1,1.4739894E0,1.2399772E0,8.123033E0,7.130645E0,2.6229773E1,9.0611105E0,4.114906E0,1.6680511E1,3.0236895E0,3.4010909E0,4.741096E0,7.459691E0,4.629557E1,3.0867058E1,5.028737E0,2.8038618E1,5.2063165E0,2.0745203E1,5.132478E0,6.523474E0,1.0990999E0,8.224513E0,2.7543416E0,3.5181286E0,6.86098E0,6.7013836E0,1.5224754E2,1.2189938E2,2.0465927E0,2.3126617E2,1.6487967E1,2.4149471E1,2.862292E1,2.272426E1,1.7581995E1,8.213314E0,3.463693E1,2.0496092E1,4.0785603E1,8.58103E1,1.5632791E1,2.1988579E1,1.2407687E0,1.2484535E0,3.7340614E1,1.7346895E0,6.6555786E0,1.4674535E0,4.9150205E0,2.2156243E0,8.405134E0,1.7824638E1,2.6509624E0,6.4101486E0,2.2058911E0,1.9090146E0,1.4935825E1,1.7446862E0,1.9694504E0,1.4316406E0],"tree_param":{"num_deleted":"0","num_feature":"77","num_nodes":"109","size_leaf_vector":"1"}},{"base_weights":[1.0711559E-2,-1.0051365E-1,5.2077657E-1,-2.1123987E-1,3.2747412E-1,9.6183974E-1,8.5703515E-2,-3.6096486E-1,8.4982045E-2,5.0188124E-1,-2.8356326E-1,1.4066178E0,6.263312E-1,-4.7888178E-1,3.756155E-1,-4.6384022E-1,-7.88833E-2,-3.0173535E-2,7.5570524E-1,6.976375E-1,-1.5218969E-1,3.9559867E-2,-7.709917E-1,-0E0,1.4544333E0,-0E0,7.553017E-1,-1.06345095E-1,-1.0041481E0,-4.6042326E-1,6.0061634E-1,-5.4264915E-1,-0E0,-1.3626283E-1,1.0871037E0,-5.8644414E-1,5.651384E-2,9.178021E-1,-2.5743067E-1,1.4939954E0,4.5477197E-1,1.1341618E0,-6.3511425E-1,-2.4942489E-1,7.4263945E-2,-1.1562581E0,-4.4769377E-2,1.4900742E0,-0E0,-5.5612624E-1,3.210709E-1,1.2140235E0,4.7454888E-1,-4.4343984E-1,5.43728E-2,-6.1875712E-2,-0E0,-7.73481E-1,2.4914838E-1,8.637649E-1,-4.8940327E-2,-2.4671971E-3,-3.2352593E-2,-3.475491E-2,2.278256E-2,3.5209965E-2,-9.568433E-3,7.4003875E-2,-0E0,-3.7783153E-2,3.6381524E-2,1.5519013E-2,-7.928981E-3,-7.0662E-4,5.3732514E-2,-0E0,-2.7409965E-2,-0E0,8.406822E-2,-5.2667793E-2,3.7541196E-2,-2.5744244E-2,7.886811E-2,5.2058944E-3,-5.3015407E-2,4.8398827E-3,-4.0046137E-2,-0E0,-6.116208E-2,2.7549976E-2,-4.8264187E-2,7.645295E-2,8.41269E-3,-4.877732E-2,-0E0,4.5474887E-2,-1.234386E-2,6.6831656E-2,6.5699443E-3,6.9168764E-3,6.0156148E-2,-4.2731527E-2,1.4327361E-2,-1.6306037E-2,2.2623716E-2,-4.688404E-2,-0E0,-4.4065956E-3,3.889464E-2,5.857089E-3,5.5845708E-2,3.6544826E-2,-2.1509727E-2],"categories":[],"categories_nodes":[],"categories_segments":[],"categories_sizes":[],"default_left":[0,0,0,0,0,0,0,0,0,0,0,0,0,0,0,0,0,0,0,0,0,0,0,0,0,0,0,0,0,0,0,0,0,0,0,0,0,0,0,0,0,0,0,0,0,0,0,0,0,0,0,0,0,0,0,0,0,0,0,0,0,0,0,0,0,0,0,0,0,0,0,0,0,0,0,0,0,0,0,0,0,0,0,0,0,0,0,0,0,0,0,0,0,0,0,0,0,0,0,0,0,0,0,0,0,0,0,0,0,0,0,0,0],"id":10,"left_children":[1,3,5,7,9,11,13,15,17,19,21,23,25,27,29,31,33,35,37,39,41,43,45,-1,47,49,51,53,55,57,59,61,63,65,67,69,71,73,75,77,79,81,83,85,-1,87,89,91,-1,93,95,97,99,101,-1,-1,103,105,107,109,111,-1,-1,-1,-1,-1,-1,-1,-1,-1,-1,-1,-1,-1,-1,-1,-1,-1,-1,-1,-1,-1,-1,-1,-1,-1,-1,-1,-1,-1,-1,-1,-1,-1,-1,-1,-1,-1,-1,-1,-1,-1,-1,-1,-1,-1,-1,-1,-1,-1,-1,-1,-1],"loss_changes":[6.542152E1,4.4456978E1,3.85391E1,3.3506355E1,2.0774952E1,1.2219986E1,1.7477016E1,1.3920509E1,2.0049288E1,1.994162E1,7.3613663E0,2.0612564E0,5.4855366E0,5.6975107E0,1.3955038E1,1.3465591E1,8.385299E0,1.0832512E1,7.125349E0,2.006046E1,2.1558607E1,1.20155735E1,3.7795868E0,0E0,1.4743805E0,2.2126756E0,4.3664227E0,9.056328E0,3.5174236E0,4.0236435E0,1.0785557E1,1.5298683E1,1.7066475E1,5.7630486E0,2.1278777E0,7.328063E0,1.0226889E1,6.0113983E0,8.4077704E-1,8.876713E0,4.169639E1,8.575921E0,9.295065E0,4.799843E0,0E0,9.304619E-2,5.4291263E0,3.4202576E-2,0E0,2.0888367E0,3.017593E0,6.865158E-1,7.049436E0,6.583975E0,0E0,0E0,6.7097735E-1,1.6443119E0,1.5314664E0,6.665514E0,4.9484673E0,0E0,0E0,0E0,0E0,0E0,0E0,0E0,0E0,0E0,0E0,0E0,0E0,0E0,0E0,0E0,0E0,0E0,0E0,0E0,0E0,0E0,0E0,0E0,0E0,0E0,0E0,0E0,0E0,0E0,0E0,0E0,0E0,0E0,0E0,0E0,0E0,0E0,0E0,0E0,0E0,0E0,0E0,0E0,0E0,0E0,0E0,0E0,0E0,0E0,0E0,0E0,0E0],"parents":[2147483647,0,0,1,1,2,2,3,3,4,4,5,5,6,6,7,7,8,8,9,9,10,10,11,11,12,12,13,13,14,14,15,15,16,16,17,17,18,18,19,19,20,20,21,21,22,22,24,24,25,25,26,26,27,27,28,28,29,29,30,30,31,31,32,32,33,33,34,34,35,35,36,36,37,37,38,38,39,39,40,40,41,41,42,42,43,43,45,45,46,46,47,47,49,49,50,50,51,51,52,52,53,53,56,56,57,57,58,58,59,59,60,60],"right_children":[2,4,6,8,10,12,14,16,18,20,22,24,26,28,30,32,34,36,38,40,42,44,46,-1,48,50,52,54,56,58,60,62,64,66,68,70,72,74,76,78,80,82,84,86,-1,88,90,92,-1,94,96,98,100,102,-1,-1,104,106,108,110,112,-1,-1,-1,-1,-1,-1,-1,-1,-1,-1,-1,-1,-1,-1,-1,-1,-1,-1,-1,-1,-1,-1,-1,-1,-1,-1,-1,-1,-1,-1,-1,-1,-1,-1,-1,-1,-1,-1,-1,-1,-1,-1,-1,-1,-1,-1,-1,-1,-1,-1,-1,-1],"split_conditions":[6E-1,-1.96E0,4E0,4.3651E0,9.38E-2,3.597E-1,1.17081E1,2.1192E0,9E0,4.2478E0,-2.5096E0,3.333E-1,7.5E-1,8.876E-1,-2.0408E0,1.4E1,4.2675E0,7.569E-1,1.76402E1,-4.869E-1,2.48E-2,1.9097E0,2.1294E0,-0E0,5.3532E0,1.421E0,1.7716E0,1.395E-1,2.5876E0,1.2032E0,2.863E-1,-1.1593E0,1.13E-2,-1.70868E1,5.3023E0,1.6667E0,1.1333E0,1.1385E0,1.3961E0,8.003E-1,-1.5209E0,1.0983E0,-3.169E0,3.195E-1,7.4263945E-2,-1.4299E0,1.3009E0,2E0,-0E0,1.1E-1,5.799E1,1.3308E0,5.5187E0,1.0424E0,5.43728E-2,-6.1875712E-2,5E0,3.6515E0,1.2116E0,1.096E1,1.1003E0,-2.4671971E-3,-3.2352593E-2,-3.475491E-2,2.278256E-2,3.5209965E-2,-9.568433E-3,7.4003875E-2,-0E0,-3.7783153E-2,3.6381524E-2,1.5519013E-2,-7.928981E-3,-7.0662E-4,5.3732514E-2,-0E0,-2.7409965E-2,-0E0,8.406822E-2,-5.2667793E-2,3.7541196E-2,-2.5744244E-2,7.886811E-2,5.2058944E-3,-5.3015407E-2,4.8398827E-3,-4.0046137E-2,-0E0,-6.116208E-2,2.7549976E-2,-4.8264187E-2,7.645295E-2,8.41269E-3,-4.877732E-2,-0E0,4.5474887E-2,-1.234386E-2,6.6831656E-2,6.5699443E-3,6.9168764E-3,6.0156148E-2,-4.2731527E-2,1.4327361E-2,-1.6306037E-2,2.2623716E-2,-4.688404E-2,-0E0,-4.4065956E-3,3.889464E-2,5.857089E-3,5.5845708E-2,3.6544826E-2,-2.1509727E-2],"split_indices":[28,41,27,71,75,5,14,16,27,18,35,21,21,11,6,27,33,11,34,0,5,5,71,0,0,7,36,40,72,11,40,0,15,71,33,21,11,16,11,16,6,7,7,5,0,5,36,20,0,32,8,11,19,71,0,0,26,17,37,22,11,0,0,0,0,0,0,0,0,0,0,0,0,0,0,0,0,0,0,0,0,0,0,0,0,0,0,0,0,0,0,0,0,0,0,0,0,0,0,0,0,0,0,0,0,0,0,0,0,0,0,0,0],"split_type":[0,0,0,0,0,0,0,0,0,0,0,0,0,0,0,0,0,0,0,0,0,0,0,0,0,0,0,0,0,0,0,0,0,0,0,0,0,0,0,0,0,0,0,0,0,0,0,0,0,0,0,0,0,0,0,0,0,0,0,0,0,0,0,0,0,0,0,0,0,0,0,0,0,0,0,0,0,0,0,0,0,0,0,0,0,0,0,0,0,0,0,0,0,0,0,0,0,0,0,0,0,0,0,0,0,0,0,0,0,0,0,0,0],"sum_hessian":[1.1438354E3,9.381123E2,2.0572316E2,7.4755316E2,1.9055916E2,1.0041571E2,1.0530745E2,4.9866226E2,2.4889091E2,1.4965784E2,4.0901325E1,4.052257E1,5.9893135E1,3.433706E1,7.097039E1,3.623306E2,1.3633163E2,2.119633E2,3.6927616E1,1.1630986E2,3.334798E1,2.3914997E1,1.6986328E1,1.7108803E0,3.881169E1,9.404358E0,5.0488777E1,2.190649E1,1.2430569E1,1.3885413E1,5.7084976E1,3.1018942E2,5.2141197E1,1.315964E2,4.7352295E0,2.935617E1,1.8260713E2,3.2766296E1,4.161318E0,2.5015333E1,9.1294525E1,8.169059E0,2.517892E1,2.0044147E1,3.8708487E0,9.811898E0,7.1744304E0,3.7594013E1,1.2176791E0,4.02954E0,5.3748183E0,1.6554453E1,3.3934322E1,1.822616E1,3.6803296E0,1.01396E1,2.2909687E0,1.0550045E1,3.3353686E0,4.1487347E1,1.5597629E1,5.6111633E1,2.5407777E2,2.0142895E1,3.1998302E1,6.2559586E0,1.25340454E2,3.0653806E0,1.669849E0,2.7057768E1,2.2984035E0,8.568391E1,9.6923225E1,3.9328806E0,2.8833418E1,1.2254373E0,2.9358804E0,2.3351576E0,2.2680176E1,1.4006708E1,7.728782E1,1.2182338E0,6.950825E0,8.611108E0,1.6567812E1,1.1706323E1,8.337826E0,1.0894927E0,8.722405E0,3.9396868E0,3.2347438E0,3.562986E1,1.9641535E0,2.8293476E0,1.2001925E0,3.209226E0,2.1655924E0,1.3829884E1,2.7245693E0,2.4972713E1,8.961611E0,1.242595E1,5.800211E0,1.1094661E0,1.1815026E0,8.729242E0,1.8208022E0,1.3904568E0,1.9449117E0,1.1875486E1,2.9611862E1,3.959224E0,1.1638405E1],"tree_param":{"num_deleted":"0","num_feature":"77","num_nodes":"113","size_leaf_vector":"1"}},{"base_weights":[1.7423431E-3,-7.801123E-2,6.5834975E-1,4.860709E-1,-1.5924798E-1,1.111233E0,3.240434E-1,8.1431454E-1,-4.7155473E-2,-2.8081572E-1,1.3861644E-1,-4.1825358E-2,1.2142297E0,5.8653915E-1,-0E0,-2.6790547E-1,1.0186011E0,-1.2162331E0,3.3598524E-1,-3.287547E-1,1.0280758E0,4.152925E-2,7.6379114E-1,9.970408E-3,-3.2786295E-2,1.290225E0,-0E0,-3.4284975E-2,7.3392487E-1,3.4369928E-1,-4.3066594E-1,5.9607625E-2,-9.426605E-1,1.1075046E0,-4.186302E-2,-7.036577E-2,-0E0,-3.6815965E-1,8.5146916E-1,4.6802238E-2,-3.8939634E-1,1.3359994E0,-2.9083073E-1,-2.917805E-1,1.603977E-1,8.774351E-1,-3.0038038E-2,1.3319931E0,-0E0,-1.4697576E-1,8.301323E-1,7.318825E-1,-3.1268033E-1,-8.780239E-1,1.1667758E-1,-6.6146605E-2,-0E0,6.529823E-2,-0E0,1.8235061E-2,-4.3072652E-2,6.533629E-2,-4.5865398E-2,-4.182778E-2,9.166431E-3,-2.794194E-2,-8.543912E-3,7.743257E-2,-9.158758E-3,-0E0,-3.5463043E-2,4.414205E-2,-2.040359E-2,2.5134614E-2,-0E0,-0E0,5.3604018E-2,7.0291996E-2,6.7009865E-3,-0E0,-2.2721944E-2,5.755802E-2,2.0463943E-2,-1.1720285E-2,4.658955E-2,-4.5648616E-2,2.8308436E-2,-5.2717783E-2,-0E0,3.923751E-2,-2.7123347E-2],"categories":[],"categories_nodes":[],"categories_segments":[],"categories_sizes":[],"default_left":[0,0,0,0,0,0,0,0,0,0,0,0,0,0,0,0,0,0,0,0,0,0,0,0,0,0,0,0,0,0,0,0,0,0,0,0,0,0,0,0,0,0,0,0,0,0,0,0,0,0,0,0,0,0,0,0,0,0,0,0,0,0,0,0,0,0,0,0,0,0,0,0,0,0,0,0,0,0,0,0,0,0,0,0,0,0,0,0,0,0,0],"id":11,"left_children":[1,3,5,7,9,11,13,15,17,19,21,23,25,27,29,31,33,35,37,39,41,43,45,-1,-1,47,-1,-1,49,51,53,-1,55,57,-1,-1,-1,59,61,63,65,67,69,71,73,75,-1,77,-1,79,81,83,85,87,89,-1,-1,-1,-1,-1,-1,-1,-1,-1,-1,-1,-1,-1,-1,-1,-1,-1,-1,-1,-1,-1,-1,-1,-1,-1,-1,-1,-1,-1,-1,-1,-1,-1,-1,-1,-1],"loss_changes":[6.0225643E1,4.6229652E1,1.7087349E1,2.2926046E1,3.236914E1,7.3137627E0,6.4453053E0,1.8587032E1,2.2762056E1,3.941915E1,1.4696737E1,1.2351124E0,5.563324E0,8.324478E0,5.194784E0,1.3316472E1,1.2386253E1,3.9701576E0,1.395311E1,1.4323303E1,1.0329798E1,8.788948E0,5.9149723E0,0E0,0E0,2.3631287E0,0E0,0E0,4.054243E0,5.5412016E0,4.726916E0,0E0,4.103833E0,1.3202042E1,0E0,0E0,0E0,6.3051367E0,1.9342226E1,9.610433E0,1.88078E1,7.642559E0,1.2313105E0,7.674227E0,8.998262E0,4.995346E0,0E0,2.188942E0,0E0,3.7380886E-1,2.7966347E0,3.4896255E0,4.493381E0,1.4419832E0,3.7385547E0,0E0,0E0,0E0,0E0,0E0,0E0,0E0,0E0,0E0,0E0,0E0,0E0,0E0,0E0,0E0,0E0,0E0,0E0,0E0,0E0,0E0,0E0,0E0,0E0,0E0,0E0,0E0,0E0,0E0,0E0,0E0,0E0,0E0,0E0,0E0,0E0],"parents":[2147483647,0,0,1,1,2,2,3,3,4,4,5,5,6,6,7,7,8,8,9,9,10,10,11,11,12,12,13,13,14,14,15,15,16,16,17,17,18,18,19,19,20,20,21,21,22,22,25,25,28,28,29,29,30,30,32,32,33,33,37,37,38,38,39,39,40,40,41,41,42,42,43,43,44,44,45,45,47,47,49,49,50,50,51,51,52,52,53,53,54,54],"right_children":[2,4,6,8,10,12,14,16,18,20,22,24,26,28,30,32,34,36,38,40,42,44,46,-1,-1,48,-1,-1,50,52,54,-1,56,58,-1,-1,-1,60,62,64,66,68,70,72,74,76,-1,78,-1,80,82,84,86,88,90,-1,-1,-1,-1,-1,-1,-1,-1,-1,-1,-1,-1,-1,-1,-1,-1,-1,-1,-1,-1,-1,-1,-1,-1,-1,-1,-1,-1,-1,-1,-1,-1,-1,-1,-1,-1],"split_conditions":[8E-1,-1.111E-1,2E0,6.303E-1,5.2466E0,-4.3556E0,2E0,-1.566E-1,1.3486E0,6.98E-2,2.8E1,1.0275E0,1.5087E0,1.06E-2,5E0,2.857E-1,2.3818E0,1.0637E0,-6.69E-2,8.33E0,1.6667E0,1.2906E0,1.47919E1,9.970408E-3,-3.2786295E-2,3.6756E0,-0E0,-3.4284975E-2,6.431E-1,2.4926E0,2.6981E0,5.9607625E-2,-3.1585E0,5E0,-4.186302E-2,-7.036577E-2,-0E0,7.979E-1,6.3718E0,3.304E1,1.708E0,5.455E-1,-7.11E0,1.0589E0,4.1649E0,5.595E1,-3.0038038E-2,7.8903E0,-0E0,3.3407E0,1.0978E0,1.1628E0,1.16378E1,2.2552E0,4.561E-1,-6.6146605E-2,-0E0,6.529823E-2,-0E0,1.8235061E-2,-4.3072652E-2,6.533629E-2,-4.5865398E-2,-4.182778E-2,9.166431E-3,-2.794194E-2,-8.543912E-3,7.743257E-2,-9.158758E-3,-0E0,-3.5463043E-2,4.414205E-2,-2.040359E-2,2.5134614E-2,-0E0,-0E0,5.3604018E-2,7.0291996E-2,6.7009865E-3,-0E0,-2.2721944E-2,5.755802E-2,2.0463943E-2,-1.1720285E-2,4.658955E-2,-4.5648616E-2,2.8308436E-2,-5.2717783E-2,-0E0,3.923751E-2,-2.7123347E-2],"split_indices":[28,76,27,38,71,33,20,9,16,76,27,4,37,40,27,21,24,4,9,22,21,36,1,0,0,12,0,0,12,16,36,0,33,26,0,0,0,24,19,8,16,28,41,4,73,8,0,33,0,19,33,6,0,24,9,0,0,0,0,0,0,0,0,0,0,0,0,0,0,0,0,0,0,0,0,0,0,0,0,0,0,0,0,0,0,0,0,0,0,0,0],"split_type":[0,0,0,0,0,0,0,0,0,0,0,0,0,0,0,0,0,0,0,0,0,0,0,0,0,0,0,0,0,0,0,0,0,0,0,0,0,0,0,0,0,0,0,0,0,0,0,0,0,0,0,0,0,0,0,0,0,0,0,0,0,0,0,0,0,0,0,0,0,0,0,0,0,0,0,0,0,0,0,0,0,0,0,0,0,0,0,0,0,0,0],"sum_hessian":[1.1370104E3,1.0132911E3,1.2371927E2,1.25382416E2,8.879087E2,5.0284218E1,7.343505E1,7.84428E1,4.6939613E1,6.3298303E2,2.5492563E2,3.3758712E0,4.6908348E1,4.0453846E1,3.29812E1,1.1629317E1,6.6813484E1,1.1693834E1,3.5245777E1,6.120781E2,2.0904915E1,2.2296587E2,3.1959751E1,1.7388403E0,1.6370308E0,4.4772854E1,2.135494E0,3.116321E0,3.7337524E1,1.8204239E1,1.4776964E1,2.964917E0,8.6644E0,6.465816E1,2.155323E0,1.0485357E1,1.2084771E0,1.4197726E1,2.1048052E1,8.283215E1,5.29246E2,1.7552254E1,3.3526592E0,5.601927E1,1.669466E2,3.0508717E1,1.451036E0,4.327914E1,1.4937128E0,2.60092E0,3.4736603E1,1.2324187E1,5.8800507E0,8.804044E0,5.972921E0,6.2517834E0,2.412617E0,5.3959694E1,1.0698465E1,5.001195E0,9.196531E0,1.7396933E1,3.6511197E0,9.421409E0,7.341074E1,2.9464212E2,2.3460387E2,1.5957406E1,1.5948483E0,1.1731217E0,2.1795378E0,3.6780212E0,5.234125E1,5.170724E1,1.1523936E2,6.056498E0,2.4452217E1,3.981647E1,3.4626703E0,1.4141725E0,1.1867474E0,1.7373009E1,1.7363596E1,1.2255331E0,1.1098654E1,4.1467E0,1.7333509E0,7.096115E0,1.7079282E0,3.6251886E0,2.3477323E0],"tree_param":{"num_deleted":"0","num_feature":"77","num_nodes":"91","size_leaf_vector":"1"}},{"base_weights":[-9.800763E-4,-8.290406E-2,6.3715494E-1,-1.679192E-1,3.2871827E-1,9.140277E-1,2.3799318E-1,-3.495366E-1,4.088683E-2,5.7680964E-1,-8.757395E-2,2.2481677E-1,1.1036544E0,-4.7753403E-1,4.3088078E-1,-4.742853E-1,-1.3110763E-1,-2.8739277E-1,1.2209206E-1,8.642318E-1,-3.3400783E-1,3.124315E-1,-9.448596E-1,-3.9006885E-2,5.596762E-1,4.8284367E-1,1.2831607E0,9.241618E-3,-7.2329885E-1,7.223617E-1,-0E0,-3.317351E-1,-6.509474E-1,-0E0,-5.066629E-1,-4.3443206E-1,8.6394125E-1,7.851734E-1,6.643783E-2,-1.7894534E-4,1.0373839E0,5.29979E-1,-5.586503E-1,-5.963571E-2,5.9252363E-1,-1.1733549E0,4.2236194E-2,8.2686347E-1,-1.3528016E-1,8.095834E-1,-3.7350258E-1,6.608078E-1,1.4391131E0,-5.3115018E-2,-0E0,8.8820225E-1,-0E0,-3.4279338E-1,6.724484E-1,-2.131976E-2,8.3394665E-3,-3.6632214E-2,-0E0,-2.0515786E-2,1.3229868E-2,3.6838334E-2,-3.0253002E-2,1.2977275E-2,-2.6327193E-2,-0E0,5.6436528E-2,5.6997377E-2,-0E0,-2.3964286E-2,7.2981673E-3,-2.3068646E-2,4.7745638E-2,2.5398558E-2,7.881426E-2,6.181941E-2,-1.9921616E-2,-5.007709E-2,-0E0,4.2808022E-2,-5.3647023E-2,-0E0,-6.519406E-2,5.199933E-2,-0E0,-2.8248355E-2,-0E0,-3.195186E-3,5.77567E-2,-3.904562E-2,-0E0,4.715561E-2,-0E0,-0E0,7.393345E-2,3.3371713E-2,-1.9595584E-2,-0E0,5.1497888E-2,8.198682E-3,-2.0908173E-2,1.6510064E-2,-2.8496025E-2,4.987885E-2,-4.0461062E-3],"categories":[],"categories_nodes":[],"categories_segments":[],"categories_sizes":[],"default_left":[0,0,0,0,0,0,0,0,0,0,0,0,0,0,0,0,0,0,0,0,0,0,0,0,0,0,0,0,0,0,0,0,0,0,0,0,0,0,0,0,0,0,0,0,0,0,0,0,0,0,0,0,0,0,0,0,0,0,0,0,0,0,0,0,0,0,0,0,0,0,0,0,0,0,0,0,0,0,0,0,0,0,0,0,0,0,0,0,0,0,0,0,0,0,0,0,0,0,0,0,0,0,0,0,0,0,0,0,0],"id":12,"left_children":[1,3,5,7,9,11,13,15,17,19,21,23,25,27,29,31,33,35,37,39,41,43,45,-1,47,49,51,-1,53,55,57,59,61,63,65,67,69,71,73,75,77,79,81,-1,83,85,-1,87,89,91,93,95,97,-1,99,101,103,105,107,-1,-1,-1,-1,-1,-1,-1,-1,-1,-1,-1,-1,-1,-1,-1,-1,-1,-1,-1,-1,-1,-1,-1,-1,-1,-1,-1,-1,-1,-1,-1,-1,-1,-1,-1,-1,-1,-1,-1,-1,-1,-1,-1,-1,-1,-1,-1,-1,-1,-1],"loss_changes":[5.929653E1,3.544733E1,1.2872204E1,3.235743E1,1.8328394E1,8.128197E0,7.833972E0,1.1715435E1,1.0300683E1,2.9500378E1,2.2764719E1,6.41348E0,3.9487E0,2.492281E0,5.4507303E0,6.0025787E0,8.080007E0,1.2719212E1,1.0788409E1,1.36688385E1,5.403405E0,1.8393143E1,1.0031061E1,0E0,3.615047E0,5.103882E0,1.0486832E0,0E0,3.0141716E0,3.990569E0,4.9150853E0,8.042902E0,6.6204643E0,1.4045427E1,5.553687E0,4.772377E0,2.8124452E0,6.728978E0,1.2529926E1,6.166552E0,1.7449295E1,4.605953E0,5.503596E0,0E0,1.7298622E1,4.1252804E0,0E0,1.6719828E0,7.513756E-1,4.924059E0,1.2020572E0,3.081571E0,9.73793E-1,0E0,1.3319534E0,3.592373E0,6.3779414E-1,2.4825773E0,2.8042E0,0E0,0E0,0E0,0E0,0E0,0E0,0E0,0E0,0E0,0E0,0E0,0E0,0E0,0E0,0E0,0E0,0E0,0E0,0E0,0E0,0E0,0E0,0E0,0E0,0E0,0E0,0E0,0E0,0E0,0E0,0E0,0E0,0E0,0E0,0E0,0E0,0E0,0E0,0E0,0E0,0E0,0E0,0E0,0E0,0E0,0E0,0E0,0E0,0E0,0E0],"parents":[2147483647,0,0,1,1,2,2,3,3,4,4,5,5,6,6,7,7,8,8,9,9,10,10,11,11,12,12,13,13,14,14,15,15,16,16,17,17,18,18,19,19,20,20,21,21,22,22,24,24,25,25,26,26,28,28,29,29,30,30,31,31,32,32,33,33,34,34,35,35,36,36,37,37,38,38,39,39,40,40,41,41,42,42,44,44,45,45,47,47,48,48,49,49,50,50,51,51,52,52,54,54,55,55,56,56,57,57,58,58],"right_children":[2,4,6,8,10,12,14,16,18,20,22,24,26,28,30,32,34,36,38,40,42,44,46,-1,48,50,52,-1,54,56,58,60,62,64,66,68,70,72,74,76,78,80,82,-1,84,86,-1,88,90,92,94,96,98,-1,100,102,104,106,108,-1,-1,-1,-1,-1,-1,-1,-1,-1,-1,-1,-1,-1,-1,-1,-1,-1,-1,-1,-1,-1,-1,-1,-1,-1,-1,-1,-1,-1,-1,-1,-1,-1,-1,-1,-1,-1,-1,-1,-1,-1,-1,-1,-1,-1,-1,-1,-1,-1,-1],"split_conditions":[8E-1,-1.25E0,2E0,-1.4521E0,1.6173E0,-2.5E-3,4.106E-1,1.708E0,-1.114E-1,1.875E-1,2.5447E0,1.719E-1,1.0396E0,1.7728E0,3.75E-1,1.17915E1,3.67E-2,1.6667E0,1.1914E0,8.003E-1,-4.7597E0,2.5E-3,1.462E1,-3.9006885E-2,-2.07E-2,2.0115E0,1.21605E1,9.241618E-3,1.6414E0,5.17E-2,1.907E1,2.192E-1,1.5149E0,-4.1494E0,2.493E1,4.971E-1,8.48E-1,1.3515E0,1.113E1,8.53E-1,-5.56E0,1.555E1,-1.5686E0,-5.963571E-2,1.0865E0,7.039E-1,4.2236194E-2,3.2827E0,8.381E-1,2.7E-2,1.4783E0,1.20542E1,8.3E-1,-5.3115018E-2,3E0,8.898E-1,3.0477E0,1.1106E0,4.2665E0,-2.131976E-2,8.3394665E-3,-3.6632214E-2,-0E0,-2.0515786E-2,1.3229868E-2,3.6838334E-2,-3.0253002E-2,1.2977275E-2,-2.6327193E-2,-0E0,5.6436528E-2,5.6997377E-2,-0E0,-2.3964286E-2,7.2981673E-3,-2.3068646E-2,4.7745638E-2,2.5398558E-2,7.881426E-2,6.181941E-2,-1.9921616E-2,-5.007709E-2,-0E0,4.2808022E-2,-5.3647023E-2,-0E0,-6.519406E-2,5.199933E-2,-0E0,-2.8248355E-2,-0E0,-3.195186E-3,5.77567E-2,-3.904562E-2,-0E0,4.715561E-2,-0E0,-0E0,7.393345E-2,3.3371713E-2,-1.9595584E-2,-0E0,5.1497888E-2,8.198682E-3,-2.0908173E-2,1.6510064E-2,-2.8496025E-2,4.987885E-2,-4.0461062E-3],"split_indices":[28,41,20,2,5,9,39,16,6,74,17,39,11,16,74,14,15,21,17,16,1,15,42,0,9,5,14,0,11,15,22,32,33,71,8,12,24,12,22,30,2,22,71,0,30,11,0,17,11,9,24,14,12,0,20,11,33,12,16,0,0,0,0,0,0,0,0,0,0,0,0,0,0,0,0,0,0,0,0,0,0,0,0,0,0,0,0,0,0,0,0,0,0,0,0,0,0,0,0,0,0,0,0,0,0,0,0,0,0],"split_type":[0,0,0,0,0,0,0,0,0,0,0,0,0,0,0,0,0,0,0,0,0,0,0,0,0,0,0,0,0,0,0,0,0,0,0,0,0,0,0,0,0,0,0,0,0,0,0,0,0,0,0,0,0,0,0,0,0,0,0,0,0,0,0,0,0,0,0,0,0,0,0,0,0,0,0,0,0,0,0,0,0,0,0,0,0,0,0,0,0,0,0,0,0,0,0,0,0,0,0,0,0,0,0,0,0,0,0,0,0],"sum_hessian":[1.1428333E3,1.0149684E3,1.2786483E2,8.437288E2,1.7123956E2,7.325645E1,5.4608387E1,4.5344345E2,3.902854E2,1.0855954E2,6.2680023E1,1.741598E1,5.5840466E1,1.0181069E1,4.442732E1,2.8495248E2,1.6849097E2,7.4452156E1,3.1583322E2,8.339276E1,2.5166777E1,4.2376453E1,2.0303568E1,3.2740567E0,1.4141922E1,1.4601798E1,4.1238667E1,1.721206E0,8.459863E0,2.5608885E1,1.8818436E1,1.62427E2,1.2252547E2,1.2666623E2,4.1824745E1,6.734288E1,7.1092725E0,2.2049744E1,2.9378348E2,1.311979E1,7.027297E1,3.994189E0,2.1172586E1,5.5772333E0,3.679922E1,1.880559E1,1.4979795E0,1.111696E1,3.0249627E0,1.1453908E1,3.14789E0,1.0597425E1,3.0641241E1,6.0565643E0,2.4032989E0,2.1658363E1,3.9505222E0,1.2441924E1,6.37651E0,1.383144E2,2.4112602E1,1.0884684E2,1.3678625E1,5.021933E1,7.64469E1,1.8460404E0,3.9978703E1,6.4059386E0,6.0936943E1,1.150925E0,5.9583473E0,1.5113426E1,6.936317E0,3.5127632E1,2.5865585E2,9.9021845E0,3.217606E0,3.7364548E1,3.290843E1,2.6915941E0,1.3025949E0,1.1385225E1,9.787362E0,3.2708027E1,4.091194E0,1.3403552E0,1.7465233E1,8.205476E0,2.9114842E0,1.5847956E0,1.4401672E0,2.6574655E0,8.796442E0,1.9200301E0,1.22786E0,8.158115E0,2.4393098E0,1.2248497E0,2.9416391E1,1.2462792E0,1.1570197E0,2.4214044E0,1.9236958E1,1.7215595E0,2.2289627E0,1.9139901E0,1.0527934E1,5.155005E0,1.2215054E0],"tree_param":{"num_deleted":"0","num_feature":"77","num_nodes":"109","size_leaf_vector":"1"}},{"base_weights":[1.1082539E-2,-2.7901027E-1,1.2575455E-1,-3.7993774E-1,1.8881664E-1,4.8514658E-1,5.9868265E-2,-7.000105E-1,-2.4490725E-1,4.3071586E-1,-3.5120174E-1,9.678142E-1,9.274008E-4,-1.4516826E-1,2.3140906E-1,-0E0,-9.021285E-1,3.8382262E-1,-3.4737548E-1,5.6478816E-1,-2.7430478E-1,-9.3734944E-1,-0E0,-6.153042E-1,1.0949625E0,2.9044676E-1,-7.59945E-1,-2.056841E-1,9.1700983E-1,2.8471106E-1,-3.3826157E-1,-4.378054E-1,1.112103E0,-9.614163E-1,1.0268293E-2,6.763968E-2,7.402068E-2,-4.9363568E-1,-1.7727772E-2,7.896739E-1,-0E0,3.910059E-2,-5.1093977E-2,-0E0,-5.5933334E-2,8.2092947E-1,-3.4556106E-1,-0E0,-4.977521E-2,1.2148768E0,-4.4934165E-2,5.8569485E-1,-5.039819E-2,5.456064E-2,-1.0572698E0,-8.42232E-2,-5.199043E-1,1.3741171E0,-4.211747E-2,2.0643273E-1,7.122699E-1,-5.668459E-1,5.3848345E-2,-4.162251E-2,1.7237687E-2,7.9095624E-2,-0E0,-0E0,-5.043928E-2,-1.5202835E-2,3.2383297E-2,1.5308008E-2,-2.7387453E-2,2.7823145E-2,-1.2965753E-2,6.730953E-2,1.625122E-2,-1.9871866E-2,3.86586E-2,5.5667013E-2,-0E0,3.9015305E-3,-4.8187874E-2,6.7850366E-2,-2.2702113E-2,6.732061E-2,-2.2429164E-2,-5.911669E-2,-0E0,-1.1686697E-2,1.0853295E-2,-4.1594025E-2,-8.68218E-4,7.849764E-2,-0E0,-7.232369E-3,1.490433E-2,7.546122E-2,1.9018315E-2,9.530509E-4,-3.761504E-2],"categories":[],"categories_nodes":[],"categories_segments":[],"categories_sizes":[],"default_left":[0,0,0,0,0,0,0,0,0,0,0,0,0,0,0,0,0,0,0,0,0,0,0,0,0,0,0,0,0,0,0,0,0,0,0,0,0,0,0,0,0,0,0,0,0,0,0,0,0,0,0,0,0,0,0,0,0,0,0,0,0,0,0,0,0,0,0,0,0,0,0,0,0,0,0,0,0,0,0,0,0,0,0,0,0,0,0,0,0,0,0,0,0,0,0,0,0,0,0,0,0],"id":13,"left_children":[1,3,5,7,9,11,13,15,17,19,21,23,25,27,29,31,33,35,37,39,41,43,45,47,49,51,53,55,57,59,61,63,65,67,-1,69,-1,71,73,75,77,-1,-1,-1,-1,79,81,-1,-1,83,-1,85,-1,-1,87,89,91,93,-1,95,97,99,-1,-1,-1,-1,-1,-1,-1,-1,-1,-1,-1,-1,-1,-1,-1,-1,-1,-1,-1,-1,-1,-1,-1,-1,-1,-1,-1,-1,-1,-1,-1,-1,-1,-1,-1,-1,-1,-1,-1],"loss_changes":[3.7941242E1,1.5465307E1,1.8917015E1,1.0420143E1,7.551936E0,2.8252562E1,2.470884E1,1.1385506E1,1.2431969E1,4.267435E0,4.217515E0,1.3549141E1,1.3948987E1,1.9816286E1,1.1693201E1,9.399288E0,4.8950233E0,7.3454127E0,7.5088234E0,5.136876E0,5.731293E0,1.2116175E0,3.6610043E0,1.4557987E0,1.5261337E1,1.8707813E1,1.0525539E1,1.084261E1,1.4836774E1,1.0748848E1,1.0348869E1,4.734361E0,4.3002095E0,2.586647E0,0E0,5.2597423E0,0E0,5.308943E0,7.3818107E0,4.7161655E0,3.1114159E0,0E0,0E0,0E0,0E0,5.4668856E-1,2.885122E0,0E0,0E0,1.4697754E1,0E0,3.3494545E1,0E0,0E0,2.5021362E0,1.00057125E1,1.1905336E1,3.774805E0,0E0,9.906628E0,1.1355135E1,3.8485346E0,0E0,0E0,0E0,0E0,0E0,0E0,0E0,0E0,0E0,0E0,0E0,0E0,0E0,0E0,0E0,0E0,0E0,0E0,0E0,0E0,0E0,0E0,0E0,0E0,0E0,0E0,0E0,0E0,0E0,0E0,0E0,0E0,0E0,0E0,0E0,0E0,0E0,0E0,0E0],"parents":[2147483647,0,0,1,1,2,2,3,3,4,4,5,5,6,6,7,7,8,8,9,9,10,10,11,11,12,12,13,13,14,14,15,15,16,16,17,17,18,18,19,19,20,20,21,21,22,22,23,23,24,24,25,25,26,26,27,27,28,28,29,29,30,30,31,31,32,32,33,33,35,35,37,37,38,38,39,39,40,40,45,45,46,46,49,49,51,51,54,54,55,55,56,56,57,57,59,59,60,60,61,61],"right_children":[2,4,6,8,10,12,14,16,18,20,22,24,26,28,30,32,34,36,38,40,42,44,46,48,50,52,54,56,58,60,62,64,66,68,-1,70,-1,72,74,76,78,-1,-1,-1,-1,80,82,-1,-1,84,-1,86,-1,-1,88,90,92,94,-1,96,98,100,-1,-1,-1,-1,-1,-1,-1,-1,-1,-1,-1,-1,-1,-1,-1,-1,-1,-1,-1,-1,-1,-1,-1,-1,-1,-1,-1,-1,-1,-1,-1,-1,-1,-1,-1,-1,-1,-1,-1],"split_conditions":[6.604E-1,3.5701E0,-1.111E-1,-3.388E-1,1.22417E1,1.4388E0,9.881E-1,-8.9113E0,8.59E0,-1.6E0,4.957E-1,8.003E-1,1.2E1,6.98E-2,6.1857E0,1.4958E0,2.639E0,8.557E-1,1.2669E0,1.0936E0,4.4929E0,-6.142E-1,1.4919E0,-4.0467E0,2.3445E0,4.6751E0,-4.271E-1,1.8917E0,5E0,1.4E1,6.619E0,5.975E-1,4.2069E0,-3.4258E0,1.0268293E-2,-3.99E0,7.402068E-2,1.39E0,1.886E-1,3.851E-1,7.374E-1,3.910059E-2,-5.1093977E-2,-0E0,-5.5933334E-2,8.418E-1,5.511E-1,-0E0,-4.977521E-2,1.2127E0,-4.4934165E-2,8.861E-1,-5.039819E-2,5.456064E-2,1E0,1.25E-2,2.2852E0,8.438E-1,-4.211747E-2,1.119E1,2.673E-1,-1.561E-1,5.3848345E-2,-4.162251E-2,1.7237687E-2,7.9095624E-2,-0E0,-0E0,-5.043928E-2,-1.5202835E-2,3.2383297E-2,1.5308008E-2,-2.7387453E-2,2.7823145E-2,-1.2965753E-2,6.730953E-2,1.625122E-2,-1.9871866E-2,3.86586E-2,5.5667013E-2,-0E0,3.9015305E-3,-4.8187874E-2,6.7850366E-2,-2.2702113E-2,6.732061E-2,-2.2429164E-2,-5.911669E-2,-0E0,-1.1686697E-2,1.0853295E-2,-4.1594025E-2,-8.68218E-4,7.849764E-2,-0E0,-7.232369E-3,1.490433E-2,7.546122E-2,1.9018315E-2,9.530509E-4,-3.761504E-2],"split_indices":[37,35,76,6,35,5,71,35,22,41,38,16,27,76,18,16,35,10,16,11,35,0,36,2,24,35,9,6,26,27,5,37,19,5,0,41,0,42,38,38,39,0,0,0,0,38,39,0,0,30,0,30,0,0,70,9,17,43,0,22,33,32,0,0,0,0,0,0,0,0,0,0,0,0,0,0,0,0,0,0,0,0,0,0,0,0,0,0,0,0,0,0,0,0,0,0,0,0,0,0,0],"split_type":[0,0,0,0,0,0,0,0,0,0,0,0,0,0,0,0,0,0,0,0,0,0,0,0,0,0,0,0,0,0,0,0,0,0,0,0,0,0,0,0,0,0,0,0,0,0,0,0,0,0,0,0,0,0,0,0,0,0,0,0,0,0,0,0,0,0,0,0,0,0,0,0,0,0,0,0,0,0,0,0,0,0,0,0,0,0,0,0,0,0,0,0,0,0,0,0,0,0,0,0,0],"sum_hessian":[1.1431097E3,3.2097247E2,8.2213727E2,2.6592752E2,5.5044952E1,1.2403246E2,6.981048E2,7.546276E1,1.9046475E2,3.9434574E1,1.5610377E1,6.0581345E1,6.345112E1,3.154195E2,3.826853E2,1.643422E1,5.902854E1,2.493884E1,1.6552591E2,3.4492508E1,4.942065E0,6.1319284E0,9.478449E0,3.6337357E0,5.694761E1,4.7361977E1,1.608914E1,3.0007126E2,1.5348243E1,3.520051E2,3.068021E1,1.1821419E1,4.612801E0,5.7011375E1,2.0171669E0,2.0889357E1,4.0494843E0,1.12209206E2,5.3316708E1,2.5393324E1,9.099185E0,1.4746599E0,3.467405E0,1.1563716E0,4.975557E0,3.1303556E0,6.348093E0,1.3945484E0,2.2391872E0,5.4558243E1,2.3893647E0,3.9662197E1,7.6997786E0,1.3915924E0,1.4697548E1,2.19626E2,8.044525E1,1.2807915E1,2.5403283E0,3.0076257E2,5.124254E1,2.753835E1,3.1418614E0,8.665507E0,3.1559117E0,3.4923916E0,1.1204097E0,2.7783527E0,5.4233025E1,1.1970236E1,8.919121E0,5.6445947E0,1.0656461E2,1.4177587E1,3.9139122E1,9.711891E0,1.5681434E1,7.0111685E0,2.088016E0,1.6867027E0,1.4436529E0,3.325565E0,3.0225277E0,5.1000927E1,3.5573168E0,2.3236612E1,1.6425585E1,1.3342203E1,1.3553448E0,1.4915373E2,7.047227E1,4.8001026E1,3.2444225E1,1.1109489E1,1.6984255E0,5.988485E1,2.4087772E2,1.3137403E1,3.8105137E1,5.5402203E0,2.1998129E1],"tree_param":{"num_deleted":"0","num_feature":"77","num_nodes":"101","size_leaf_vector":"1"}},{"base_weights":[-3.0253548E-4,-1.0763465E-1,4.8992777E-1,-2.0947565E-1,2.789515E-1,8.9199436E-1,4.818777E-2,-2.8072464E-1,2.2058757E-1,4.3755665E-1,-4.8681405E-1,1.3148546E0,5.638842E-1,-4.5190367E-1,2.8815705E-1,-7.488268E-2,-4.5610172E-1,-3.58137E-1,5.614698E-1,6.152098E-1,-7.097172E-2,-7.8936E-1,-1.4590761E-1,-0E0,1.3640883E0,-2.4526526E-1,7.3600453E-1,-5.6400485E-2,-9.677942E-1,1.3677224E0,3.0298442E-2,-1.1357796E0,-1.555254E-2,-1.6247435E-1,-7.184134E-1,-7.504488E-1,4.329476E-1,8.328238E-1,-5.548173E-2,8.938607E-1,6.815212E-2,6.807089E-1,-5.332828E-1,-8.699657E-1,-0E0,2.2658488E-1,-6.001348E-1,-0E0,1.4001408E0,2.3411809E-1,-6.14623E-1,9.015097E-1,2.8636616E-1,-6.326588E-1,5.643863E-1,2.6721838E-3,-1.1671914E0,-0E0,7.852691E-2,-6.311584E-1,2.3914647E-1,-6.221048E-2,-0E0,-6.9060796E-3,1.3261521E-2,-2.9749949E-2,2.890906E-3,-2.3437059E-2,-4.892845E-2,-0E0,-5.2803963E-2,3.4025744E-2,-5.999973E-3,6.4132705E-2,2.276291E-3,2.1122118E-2,-5.704962E-2,-3.811687E-4,5.759942E-2,-3.757259E-2,2.9940788E-2,5.6437023E-2,-2.3501782E-2,-3.918257E-2,3.4535315E-2,-0E0,-5.023793E-2,3.660507E-2,-1.904544E-2,1.6836626E-2,-4.5874886E-2,-0E0,7.156986E-2,-5.0858147E-3,3.6976945E-2,-4.5628384E-2,-0E0,1.9305633E-2,5.2828252E-2,-1.24093285E-2,3.1526614E-2,-4.6571653E-2,8.346523E-3,-3.497487E-3,4.4692557E-2,-0E0,-6.164319E-2,-4.469954E-2,1.1065095E-2,4.32423E-2,-4.897056E-3],"categories":[],"categories_nodes":[],"categories_segments":[],"categories_sizes":[],"default_left":[0,0,0,0,0,0,0,0,0,0,0,0,0,0,0,0,0,0,0,0,0,0,0,0,0,0,0,0,0,0,0,0,0,0,0,0,0,0,0,0,0,0,0,0,0,0,0,0,0,0,0,0,0,0,0,0,0,0,0,0,0,0,0,0,0,0,0,0,0,0,0,0,0,0,0,0,0,0,0,0,0,0,0,0,0,0,0,0,0,0,0,0,0,0,0,0,0,0,0,0,0,0,0,0,0,0,0,0,0,0,0],"id":14,"left_children":[1,3,5,7,9,11,13,15,17,19,21,23,25,27,29,31,33,35,37,39,41,43,45,-1,47,49,51,53,55,57,59,61,63,65,67,69,71,73,75,77,79,81,83,85,-1,87,89,-1,91,93,95,97,99,101,103,-1,105,-1,-1,107,109,-1,-1,-1,-1,-1,-1,-1,-1,-1,-1,-1,-1,-1,-1,-1,-1,-1,-1,-1,-1,-1,-1,-1,-1,-1,-1,-1,-1,-1,-1,-1,-1,-1,-1,-1,-1,-1,-1,-1,-1,-1,-1,-1,-1,-1,-1,-1,-1,-1,-1],"loss_changes":[5.9458977E1,3.678778E1,3.5000866E1,2.287078E1,2.3637325E1,1.1923325E1,1.1820796E1,2.2514755E1,2.0937143E1,1.5197729E1,2.3070989E0,3.488266E0,9.320852E0,5.260295E0,1.768833E1,1.7584297E1,2.537413E1,1.2468067E1,1.2036266E1,1.7484482E1,1.45705595E1,1.2147675E0,3.569809E0,0E0,1.8875809E0,2.405659E0,2.4595013E0,7.488862E0,3.6855125E0,3.0916805E0,7.6655602E0,2.0537357E0,9.685777E0,1.625918E1,9.704376E0,5.222883E0,2.3425248E0,1.550827E1,1.1717197E1,1.9569775E1,1.9114979E1,9.101415E0,8.89656E0,1.4209051E0,0E0,3.533363E0,3.7539108E0,0E0,1.1151886E0,1.4207928E0,1.0014794E0,1.0478954E0,3.7052965E0,3.6784625E0,2.8088312E0,0E0,1.1166859E-1,0E0,0E0,3.751967E0,1.0421751E1,0E0,0E0,0E0,0E0,0E0,0E0,0E0,0E0,0E0,0E0,0E0,0E0,0E0,0E0,0E0,0E0,0E0,0E0,0E0,0E0,0E0,0E0,0E0,0E0,0E0,0E0,0E0,0E0,0E0,0E0,0E0,0E0,0E0,0E0,0E0,0E0,0E0,0E0,0E0,0E0,0E0,0E0,0E0,0E0,0E0,0E0,0E0,0E0,0E0,0E0],"parents":[2147483647,0,0,1,1,2,2,3,3,4,4,5,5,6,6,7,7,8,8,9,9,10,10,11,11,12,12,13,13,14,14,15,15,16,16,17,17,18,18,19,19,20,20,21,21,22,22,24,24,25,25,26,26,27,27,28,28,29,29,30,30,31,31,32,32,33,33,34,34,35,35,36,36,37,37,38,38,39,39,40,40,41,41,42,42,43,43,45,45,46,46,48,48,49,49,50,50,51,51,52,52,53,53,54,54,56,56,59,59,60,60],"right_children":[2,4,6,8,10,12,14,16,18,20,22,24,26,28,30,32,34,36,38,40,42,44,46,-1,48,50,52,54,56,58,60,62,64,66,68,70,72,74,76,78,80,82,84,86,-1,88,90,-1,92,94,96,98,100,102,104,-1,106,-1,-1,108,110,-1,-1,-1,-1,-1,-1,-1,-1,-1,-1,-1,-1,-1,-1,-1,-1,-1,-1,-1,-1,-1,-1,-1,-1,-1,-1,-1,-1,-1,-1,-1,-1,-1,-1,-1,-1,-1,-1,-1,-1,-1,-1,-1,-1,-1,-1,-1,-1,-1,-1],"split_conditions":[6E-1,-1.96E0,4E0,1E1,2.5E-1,3.821E-1,1.17081E1,1E0,3.425E-1,2.5262E0,1.07E-2,6.026E-1,7.5E-1,9.021E-1,6.25E-1,3.981E-1,-9.665E-1,3.5392E0,1.4493E0,6.194E-1,5.396E-1,6.659E-1,1E0,-0E0,-3.754E-1,7.493E-1,4.9286E0,4.253E-1,7.269E-1,3.07E-2,-1.3749E0,1.25846E1,4.1276E0,9.19E-1,5.7E-3,7.078E-1,7.15E-2,2.0002E0,-7.2E-3,1.0489E0,-5.244E0,4.008E-1,7.0303E0,-1.9751E0,-0E0,7.982E-1,1.44E-2,-0E0,-5.6643E0,1.1437E0,-5.08E-2,1.369E1,6.4868E0,5.071E-1,1.6998E0,2.6721838E-3,2.3E-3,-0E0,7.852691E-2,1.106E0,9.642E-1,-6.221048E-2,-0E0,-6.9060796E-3,1.3261521E-2,-2.9749949E-2,2.890906E-3,-2.3437059E-2,-4.892845E-2,-0E0,-5.2803963E-2,3.4025744E-2,-5.999973E-3,6.4132705E-2,2.276291E-3,2.1122118E-2,-5.704962E-2,-3.811687E-4,5.759942E-2,-3.757259E-2,2.9940788E-2,5.6437023E-2,-2.3501782E-2,-3.918257E-2,3.4535315E-2,-0E0,-5.023793E-2,3.660507E-2,-1.904544E-2,1.6836626E-2,-4.5874886E-2,-0E0,7.156986E-2,-5.0858147E-3,3.6976945E-2,-4.5628384E-2,-0E0,1.9305633E-2,5.2828252E-2,-1.24093285E-2,3.1526614E-2,-4.6571653E-2,8.346523E-3,-3.497487E-3,4.4692557E-2,-0E0,-6.164319E-2,-4.469954E-2,1.1065095E-2,4.32423E-2,-4.897056E-3],"split_indices":[28,41,27,27,75,5,14,26,5,72,15,12,21,12,28,12,5,2,12,38,5,39,26,0,32,37,5,38,11,40,0,7,18,11,32,12,15,72,32,72,2,39,5,5,0,37,15,0,33,12,32,22,2,39,19,0,15,0,0,4,12,0,0,0,0,0,0,0,0,0,0,0,0,0,0,0,0,0,0,0,0,0,0,0,0,0,0,0,0,0,0,0,0,0,0,0,0,0,0,0,0,0,0,0,0,0,0,0,0,0,0],"split_type":[0,0,0,0,0,0,0,0,0,0,0,0,0,0,0,0,0,0,0,0,0,0,0,0,0,0,0,0,0,0,0,0,0,0,0,0,0,0,0,0,0,0,0,0,0,0,0,0,0,0,0,0,0,0,0,0,0,0,0,0,0,0,0,0,0,0,0,0,0,0,0,0,0,0,0,0,0,0,0,0,0,0,0,0,0,0,0,0,0,0,0,0,0,0,0,0,0,0,0,0,0,0,0,0,0,0,0,0,0,0,0],"sum_hessian":[1.135287E3,9.336844E2,2.0160263E2,7.4141364E2,1.9227072E2,1.03822014E2,9.7780624E1,6.383329E2,1.03080734E2,1.6071745E2,3.1553274E1,4.2715813E1,6.1106197E1,3.0068357E1,6.7712265E1,2.9694012E2,3.413928E2,3.710405E1,6.5976685E1,1.2040939E2,4.0308056E1,1.4466123E1,1.7087152E1,1.2240334E0,4.149178E1,9.624746E0,5.1481453E1,1.8745216E1,1.1323142E1,1.1477532E1,5.6234734E1,1.3873125E1,2.8306702E2,1.6364401E2,1.7774878E2,2.5682922E1,1.1421126E1,4.6705265E1,1.9271418E1,7.81439E1,4.22655E1,1.4346444E1,2.5961613E1,1.33379545E1,1.1281687E0,8.454003E0,8.633148E0,1.1972276E0,4.029455E1,3.1696525E0,6.4550934E0,3.527008E1,1.621137E1,1.0546729E1,8.198487E0,1.1500218E0,1.01731205E1,1.761136E0,9.716396E0,1.1860445E1,4.437429E1,1.2720417E1,1.1527078E0,1.998826E2,8.3184395E1,5.6179348E1,1.0746467E2,9.409302E1,8.3655754E1,8.526432E0,1.715649E1,8.978866E0,2.4422612E0,2.8514105E1,1.819116E1,1.3164859E1,6.1065593E0,1.6748373E1,6.1395523E1,1.5706498E1,2.6559E1,1.0965323E1,3.3811204E0,2.252986E1,3.4317548E0,2.181478E0,1.1156476E1,5.4008E0,3.0532033E0,1.3717349E0,7.2614136E0,1.239466E0,3.9055084E1,1.1954906E0,1.9741619E0,3.5843165E0,2.870777E0,1.0455601E1,2.4814482E1,5.320682E0,1.0890688E1,8.468242E0,2.0784879E0,2.0342672E0,6.16422E0,1.0851707E0,9.08795E0,9.924774E0,1.9356703E0,1.6026663E1,2.8347628E1],"tree_param":{"num_deleted":"0","num_feature":"77","num_nodes":"111","size_leaf_vector":"1"}},{"base_weights":[-2.0910896E-2,-2.7923626E-1,7.6258555E-2,-3.9590916E-1,1.2516719E-1,9.314623E-4,3.4460658E-1,-4.2353162E-1,6.5144844E-2,3.626255E-1,-2.6528162E-1,-2.2229952E-1,1.7609178E-1,8.1294376E-1,1.3395232E-1,-7.9231817E-1,-3.2313296E-1,8.9110476E-1,4.4608995E-2,-4.9451286E-1,8.833674E-1,-2.7444735E-1,4.5927462E-1,1.4476573E0,1.49828E-1,-5.951217E-1,9.628109E-1,-6.236997E-1,3.1322068E-1,-8.699665E-1,-0E0,-4.1776234E-1,4.7560494E-2,-6.257397E-2,1.2454782E0,-9.235771E-1,3.7096405E-1,-7.849545E-1,-0E0,-0E0,5.927081E-2,2.3746377E-1,-3.7195095E-1,1.1104748E0,-0E0,8.092771E-2,-0E0,-1.8806505E-1,2.1912211E-1,-0E0,-4.808651E-2,-5.7148975E-1,1.1100249E0,-0E0,-7.048664E-2,-7.6711947E-1,4.333732E-1,-4.7562912E-2,1.4893095E-3,-3.4276854E-2,2.467872E-2,5.012445E-3,-2.500912E-2,-2.2006167E-2,3.505778E-2,5.0186957E-3,-2.2919795E-2,7.194015E-2,-0E0,-5.6964267E-2,-0E0,2.8772697E-2,-2.1214634E-2,5.7560233E-3,-4.763222E-2,4.6287473E-2,-1.8191304E-2,-1.5223759E-3,4.4453736E-2,1.46051645E-2,-2.343962E-2,-0E0,6.932918E-2,-2.0042708E-2,3.358203E-2,-1.4105881E-2,3.2222312E-2,1.2370973E-2,-3.6643494E-2,-4.394265E-2,-0E0,6.161986E-2,-1.14966845E-2,3.0612463E-2,-4.0128704E-2,3.9282527E-2,-6.619273E-2,4.43972E-2,4.438024E-3],"categories":[],"categories_nodes":[],"categories_segments":[],"categories_sizes":[],"default_left":[0,0,0,0,0,0,0,0,0,0,0,0,0,0,0,0,0,0,0,0,0,0,0,0,0,0,0,0,0,0,0,0,0,0,0,0,0,0,0,0,0,0,0,0,0,0,0,0,0,0,0,0,0,0,0,0,0,0,0,0,0,0,0,0,0,0,0,0,0,0,0,0,0,0,0,0,0,0,0,0,0,0,0,0,0,0,0,0,0,0,0,0,0,0,0,0,0,0,0],"id":15,"left_children":[1,3,5,7,9,11,13,15,-1,17,19,21,23,25,27,29,31,33,35,37,39,41,43,45,47,49,51,53,55,57,59,61,63,65,67,69,71,73,75,-1,-1,77,79,81,83,-1,-1,85,87,-1,-1,89,91,93,-1,95,97,-1,-1,-1,-1,-1,-1,-1,-1,-1,-1,-1,-1,-1,-1,-1,-1,-1,-1,-1,-1,-1,-1,-1,-1,-1,-1,-1,-1,-1,-1,-1,-1,-1,-1,-1,-1,-1,-1,-1,-1,-1,-1],"loss_changes":[2.8548492E1,1.5015812E1,1.6187815E1,1.1116554E1,6.5518203E0,2.5118319E1,1.6343779E1,7.5632515E0,0E0,6.5301495E0,6.6094565E0,9.909194E0,1.0312465E1,1.2134605E1,1.6770094E1,2.8011436E0,7.1775723E0,6.5139637E0,9.305593E0,3.1031837E0,7.822411E-1,1.3325401E1,4.9195967E0,3.270111E-1,8.446497E0,1.8704813E0,1.2233147E1,1.0490327E1,1.3273157E1,4.1821747E0,2.2860272E0,7.1273346E0,1.2713393E1,6.8774307E-1,3.4439754E0,1.6837869E0,4.2997274E0,3.0336542E0,3.4198823E0,0E0,0E0,8.037897E0,1.4624605E1,2.3631763E0,3.8741121E0,0E0,0E0,4.4350834E0,7.7697573E0,0E0,0E0,1.0273653E0,8.765446E0,7.60926E0,0E0,1.0018408E1,1.3591473E1,0E0,0E0,0E0,0E0,0E0,0E0,0E0,0E0,0E0,0E0,0E0,0E0,0E0,0E0,0E0,0E0,0E0,0E0,0E0,0E0,0E0,0E0,0E0,0E0,0E0,0E0,0E0,0E0,0E0,0E0,0E0,0E0,0E0,0E0,0E0,0E0,0E0,0E0,0E0,0E0,0E0,0E0],"parents":[2147483647,0,0,1,1,2,2,3,3,4,4,5,5,6,6,7,7,9,9,10,10,11,11,12,12,13,13,14,14,15,15,16,16,17,17,18,18,19,19,20,20,21,21,22,22,23,23,24,24,25,25,26,26,27,27,28,28,29,29,30,30,31,31,32,32,33,33,34,34,35,35,36,36,37,37,38,38,41,41,42,42,43,43,44,44,47,47,48,48,51,51,52,52,53,53,55,55,56,56],"right_children":[2,4,6,8,10,12,14,16,-1,18,20,22,24,26,28,30,32,34,36,38,40,42,44,46,48,50,52,54,56,58,60,62,64,66,68,70,72,74,76,-1,-1,78,80,82,84,-1,-1,86,88,-1,-1,90,92,94,-1,96,98,-1,-1,-1,-1,-1,-1,-1,-1,-1,-1,-1,-1,-1,-1,-1,-1,-1,-1,-1,-1,-1,-1,-1,-1,-1,-1,-1,-1,-1,-1,-1,-1,-1,-1,-1,-1,-1,-1,-1,-1,-1,-1],"split_conditions":[6.604E-1,2.8378E0,-1.96E0,7.083E1,5.739E-1,9.881E-1,1.13408E1,-1.0638E0,6.5144844E-2,3.941E-1,1.2734E0,3.5092E0,1.0309E0,8.095E-1,-1.4382E0,1.184E-1,1.3E1,1.786E-1,-7.14E-2,1.32132E1,1.3414E0,7.268E-1,4.0995E0,5.912E-1,1.0438E0,1.4974E0,7.214E-1,1.1658E0,-5.4108E0,4.7198E0,-9E-2,8.59E0,1.17081E1,3.961E1,4.481E1,2.153E0,1.2032E0,8.812E-1,4.7154E0,-0E0,5.927081E-2,1E1,1.0302E0,1.18588E1,8.494E-1,8.092771E-2,-0E0,1.3241E0,7E0,-0E0,-4.808651E-2,1.07072E1,1.2258E0,9.169E-1,-7.048664E-2,-6.2522E0,-2.2059E0,-4.7562912E-2,1.4893095E-3,-3.4276854E-2,2.467872E-2,5.012445E-3,-2.500912E-2,-2.2006167E-2,3.505778E-2,5.0186957E-3,-2.2919795E-2,7.194015E-2,-0E0,-5.6964267E-2,-0E0,2.8772697E-2,-2.1214634E-2,5.7560233E-3,-4.763222E-2,4.6287473E-2,-1.8191304E-2,-1.5223759E-3,4.4453736E-2,1.46051645E-2,-2.343962E-2,-0E0,6.932918E-2,-2.0042708E-2,3.358203E-2,-1.4105881E-2,3.2222312E-2,1.2370973E-2,-3.6643494E-2,-4.394265E-2,-0E0,6.161986E-2,-1.14966845E-2,3.0612463E-2,-4.0128704E-2,3.9282527E-2,-6.619273E-2,4.43972E-2,4.438024E-3],"split_indices":[37,2,41,8,37,71,14,6,0,39,11,36,4,16,6,40,27,39,9,14,16,12,16,36,34,18,11,5,33,7,42,22,14,8,22,16,11,3,2,0,0,27,16,14,2,0,0,11,26,0,0,14,30,3,0,1,7,0,0,0,0,0,0,0,0,0,0,0,0,0,0,0,0,0,0,0,0,0,0,0,0,0,0,0,0,0,0,0,0,0,0,0,0,0,0,0,0,0,0],"split_type":[0,0,0,0,0,0,0,0,0,0,0,0,0,0,0,0,0,0,0,0,0,0,0,0,0,0,0,0,0,0,0,0,0,0,0,0,0,0,0,0,0,0,0,0,0,0,0,0,0,0,0,0,0,0,0,0,0,0,0,0,0,0,0,0,0,0,0,0,0,0,0,0,0,0,0,0,0,0,0,0,0,0,0,0,0,0,0,0,0,0,0,0,0,0,0,0,0,0,0],"sum_hessian":[1.127395E3,3.1045825E2,8.169368E2,2.4287971E2,6.757852E1,6.4157294E2,1.7536388E2,2.403116E2,2.56811E0,4.3658966E1,2.3919556E1,2.7945132E2,3.621216E2,5.20461E1,1.2331777E2,4.781703E1,1.9249457E2,1.4543704E1,2.9115261E1,2.1140669E1,2.7788868E0,2.615077E2,1.794366E1,5.462419E0,3.566592E2,4.078959E0,4.796714E1,2.2053679E1,1.0126409E2,4.3192757E1,4.624277E0,1.5539621E2,3.709836E1,3.3987184E0,1.1144986E1,6.1061716E0,2.3009089E1,1.282371E1,8.316958E0,1.123735E0,1.6551518E0,3.996946E1,2.2153822E2,6.229788E0,1.1713874E1,4.2946086E0,1.1678101E0,5.7947823E1,2.9871136E2,1.1118317E0,2.9671276E0,3.352432E0,4.4614708E1,1.3262615E1,8.791063E0,8.763212E0,9.250088E1,4.058052E1,2.6122353E0,1.9700142E0,2.654263E0,1.9635775E1,1.3576044E2,2.0556568E1,1.6541792E1,1.1466892E0,2.2520292E0,9.764159E0,1.3808262E0,4.967247E0,1.1389246E0,1.9522882E1,3.4862072E0,1.1266301E0,1.1697081E1,1.8348219E0,6.4821367E0,2.7911997E1,1.2057463E1,2.6624958E1,1.9491327E2,1.3634937E0,4.866294E0,6.961763E0,4.752111E0,5.3738995E1,4.208827E0,2.918275E2,6.883852E0,2.1705427E0,1.1818892E0,4.163861E1,2.976099E0,7.250917E0,6.0116982E0,1.7302032E0,7.033009E0,3.7955803E1,5.454508E1],"tree_param":{"num_deleted":"0","num_feature":"77","num_nodes":"99","size_leaf_vector":"1"}},